{"learner":{"attributes":{"scikit_learn":"{\"_estimator_type\": \"regressor\"}"},"feature_names":[],"feature_types":[],"gradient_booster":{"model":{"gbtree_model_param":{"num_parallel_tree":"1","num_trees":"20"},"iteration_indptr":[0,1,2,3,4,5,6,7,8,9,10,11,12,13,14,15,16,17,18,19,20],"tree_info":[0,0,0,0,0,0,0,0,0,0,0,0,0,0,0,0,0,0,0,0],"trees":[{"base_weights":[-7.46729E-7,8.787875E0,-1.8842037E0,4.9877E0,1.1535235E1,-2.5086024E0,1.609948E1,1.0529345E1,3.589702E-2,1.115057E1,1.794268E1,1.5153496E0,-4.147204E0,1.4962925E1,6.3733525E0,1.3550476E1,7.409977E0,-1.7766114E0,6.9208755E0,1.0569293E1,1.4086838E1,1.9726456E1,5.0009155E0,5.549195E0,-9.9402565E-1,-6.323903E0,-1.8378928E0,1.4287278E1,5.907442E0,1.0809096E1,1.6825697E1,8.131114E0,1.8821688E0,-4.2323513E0,5.678727E-1,7.8543425E0,1.8062501E0,1.1477385E1,9.464332E0,1.3435203E1,6.0556364E0,2.8571372E0,5.998003E0,1.6293391E0,1.0362496E1,-4.0269217E0,2.4266424E0,-3.255167E0,-7.642356E0,1.9805683E0,-3.7243407E0,1.5267255E1,1.2751151E1,1.7998791E0,1.2254643E1,2.034753E1,1.1651293E1,1.8877703E0,8.939077E0,-4.886334E0,-3.8420641E0,1.3306775E0,-5.9035045E-1,1.8092784E0,2.54404E0,9.71852E0,1.2172196E1,-5.3276205E-1,9.578252E0,1.4426676E1,3.6306872E0,-1.0344503E0,4.2203646E0,1.710135E1,5.9198093E0,-6.511261E0,-1.1132321E0,-3.9680538E-1,6.2015557E0,-7.383032E0,3.5339017E0,-8.484189E0,-5.066732E0,7.7958326E0,-4.5701063E-1,-5.394342E0,-1.2041945E0,1.3346698E1,1.6175604E1,2.6653259E0,1.3500468E1,2.5441065E0,1.3545659E1,5.855978E0,7.0925326E0,2.3486218E0,1.2937731E1,2.6020837E0,3.1415894E0,-5.871105E0,-4.1843867E0,-3.0480223E0,-4.0766068E0,9.0753175E-3,1.6849872E0,6.5066315E-2,-1.4054807E0,1.0581949E1,2.4300647E0,4.5298934E0,1.1390183E1,-2.728739E0,3.5819893E0,1.0752237E1,9.099765E0,1.6502695E1,1.3726026E1,-1.1955191E0,4.9833264E0,3.810348E0,5.713287E0,1.4856586E1,1.947122E1,2.10711E0,1.2036601E1,-8.062737E0,-5.1457324E0,-5.03245E0,3.0900428E0,-1.8005483E0,1.2502588E0,1.8709078E0,1.1287744E1,-9.2990026E-2,-1.1835026E1,9.900269E0,6.891785E-1,-6.840569E0,-1.0557051E1,-2.970842E0,-7.1869955E0,3.846485E0,1.490269E1,2.2005708E0,-2.6432977E0,-2.8031893E0,-3.322671E0,5.303442E0,-2.9832225E0,4.376766E0,1.064442E1,1.7388182E1,1.39580345E1,4.260082E0,1.1970358E1,1.3036983E1,5.3978767E0,1.1396774E0,1.3104153E1,-6.2973647E0,-2.8598118E0,-3.4725244E0,-5.7258935E0,-1.930428E0,-4.7167153E0,-3.6947622E0,-4.9433646E0,7.032519E-1,-3.0657833E0,1.7846894E0,-2.4013824E0,-5.29642E-1,1.0796708E0,-1.7300036E0,4.6723795E-1,1.0682297E1,1.4652996E0,1.5092717E1,1.0137602E1,5.547581E-1,-3.3714516E0,5.0237904E0,1.3967744E-1,1.1982307E1,8.767993E0,1.0306296E1,2.677053E0,3.0155487E0,5.3807755E0,1.4933746E1,3.709432E0,-2.4050949E0,-6.844813E-1,2.9665651E0,9.927648E0,-9.45242E-1,1.49275875E1,5.390188E0,6.0106125E0,4.0445175E0,3.2711628E-1,1.5364827E1,9.597885E0,-6.6357245E0,-1.1014552E1,-4.840083E0,-6.974571E0,-1.558543E0,-6.6454573E0,1.0334468E1,-9.547894E-1,-3.748361E0,-1.6234313E0,1.1279113E1,-1.543558E0,1.4163778E0,4.0177913E0,4.414622E0,8.923218E0,-7.136057E-1,1.7065434E-1,-3.7089705E0,-1.1268112E1,1.9153227E0,1.0003554E1,-1.8595593E0,4.080843E0,-8.154306E0,-5.4978004E0,-1.1634229E1,-9.256011E0,-1.8090338E0,-3.9805143E0,-1.18534355E1,-2.8506582E0,1.263541E0,4.028832E0,1.5242309E1,4.9523573E0,4.6357856E0,1.9233888E0,-5.523189E0,2.321108E0,-9.630543E-1,-5.296542E0,1.8078333E0,8.744413E0,-3.0581608E0,5.0958266E0,4.524597E0,2.9448605E0,1.4441036E1,1.8676971E1,2.6170564E0,4.3369703E0,8.547581E-1,3.614337E0,3.9319916E0,1.3396775E0,3.7337532E0,5.0785646E0,-1.2541426E0,-2.0812294E0,2.547581E-1,-9.822581E-1,-1.3204755E0,-4.7746775E-1,-1.3836808E0,-2.4814358E0,1.9047581E0,-6.6518027E-1,-1.6301095E0,-1.7540322E-1,-8.3506054E-1,-1.2645134E0,-8.693952E-1,-1.7848977E0,2.318094E-3,6.490404E-1,-1.2214355E0,-1.3238709E-1,1.9167417E-1,6.7405E-1,4.047581E-1,-9.7540325E-1,-2.1685281E-1,1.4396775E0,5.1196164E-1,-2.8294355E-1,-4.5461867E-2,-6.667453E-1,2.857072E-1,-3.678629E-1,3.2202098E0,1.2821372E0,4.5899277E0,2.7085645E0,3.1602213E0,2.8520272E0,-2.2603226E0,-4.166734E-1,1.9396775E0,1.0475808E-1,2.403564E0,3.9206364E0,1.6758945E0,2.8792617E0,2.1155484E0,3.207421E0,3.7188137E0,4.846723E0,-1.1765702E0,-5.684814E-1,-2.8640476E-1,3.626393E-1,1.4569061E0,-4.2214847E-1,3.2235434E0,1.2755485E0,4.315541E0,5.5778155E0,2.4708266E0,-7.238709E-2,3.4059423E-1,1.2773931E0,-9.658807E-1,1.2974145E0,3.2937658E0,4.866825E0,1.6333665E0,4.6656475E0,-1.0714356E0,-2.0063744E0,-3.4876175E0,-1.1436163E0,-1.6418426E0,-5.775531E-1,-1.6256802E0,-2.1894672E0,-6.6306174E-1,-3.898886E-1,-2.6347914E0,-1.5792048E0,2.9919088E0,4.3755484E0,-5.689411E-1,5.251091E-1,-1.518933E0,-4.3671373E-1,-3.4413034E-1,-5.533491E-1,1.312097E-1,3.8322031E0,-2.0523872E0,-4.4621438E-1,7.45365E-1,-5.739007E-1,1.4109995E0,8.434763E-1,3.2872128E0,2.241225E0,-1.8322138E-1,-1.1489862E0,2.2634158E-1,-1.1080819E-1,-3.2607055E0,-3.5401192E0,-9.45242E-1,1.0676129E0,9.2459685E-1,3.0271208E0,4.3672812E-1,-5.714362E-1,1.816018E-1,1.3119044E0,-2.988096E0,-2.0479505E0,-1.286965E0,-2.0272691E0,-3.7082784E0,-3.2479947E0,-1.6851963E0,-3.5575213E0,-6.0755634E-1,-2.506028E-1,-1.085402E0,-1.5159718E0,-3.7525182E0,-3.3405278E0,-4.7052434E-1,-1.2298542E0,4.1427824E-1,-6.78629E-2,4.8570687E-1,1.2507603E0,4.409823E0,5.583714E0,4.745968E-1,2.0583267E0,2.865726E-1,2.1281176E0,6.9081736E-1,3.030536E-1,-2.074216E0,-1.1540232E0,-4.2746773E-1,7.710331E-1,-6.544349E-1,6.478362E-1,-3.047296E0,-3.476206E-1,1.8206636E0,3.0865395E-1,2.767905E0,-1.282258E0,-1.0121936E0,-3.5628542E-2,1.607613E0,4.4953146E0,5.9638553E0,4.5741243E0],"categories":[],"categories_nodes":[],"categories_segments":[],"categories_sizes":[],"default_left":[0,0,0,0,0,0,0,0,0,0,0,0,0,0,0,0,0,0,0,0,0,0,0,0,0,0,0,0,0,0,0,0,0,0,0,0,0,0,0,0,0,0,0,0,0,0,0,0,0,0,0,0,0,0,0,0,0,0,0,0,0,0,0,0,0,0,0,0,0,0,0,0,0,0,0,0,0,0,0,0,0,0,0,0,0,0,0,0,0,0,0,0,0,0,0,0,0,0,0,0,0,0,0,0,0,0,0,0,0,0,0,0,0,0,0,0,0,0,0,0,0,0,0,0,0,0,0,0,0,0,0,0,0,0,0,0,0,0,0,0,0,0,0,0,0,0,0,0,0,0,0,0,0,0,0,0,0,0,0,0,0,0,0,0,0,0,0,0,0,0,0,0,0,0,0,0,0,0,0,0,0,0,0,0,0,0,0,0,0,0,0,0,0,0,0,0,0,0,0,0,0,0,0,0,0,0,0,0,0,0,0,0,0,0,0,0,0,0,0,0,0,0,0,0,0,0,0,0,0,0,0,0,0,0,0,0,0,0,0,0,0,0,0,0,0,0,0,0,0,0,0,0,0,0,0,0,0,0,0,0,0,0,0,0,0,0,0,0,0,0,0,0,0,0,0,0,0,0,0,0,0,0,0,0,0,0,0,0,0,0,0,0,0,0,0,0,0,0,0,0,0,0,0,0,0,0,0,0,0,0,0,0,0,0,0,0,0,0,0,0,0,0,0,0,0,0,0,0,0,0,0,0,0,0,0,0,0,0,0,0,0,0,0,0,0,0,0,0,0,0,0,0,0,0,0,0,0,0,0,0,0,0,0,0,0,0,0,0,0,0,0,0,0,0,0,0,0,0,0,0,0,0,0,0,0,0,0,0,0,0,0,0,0,0,0,0,0,0,0,0,0,0,0,0,0,0,0,0,0,0,0,0,0,0,0,0,0,0,0,0,0],"id":0,"left_children":[1,3,5,7,9,11,13,15,17,19,21,23,25,27,-1,29,31,33,35,37,39,41,-1,43,45,47,49,51,-1,53,55,57,-1,59,61,63,-1,65,67,69,-1,-1,-1,71,73,75,77,79,81,83,85,87,89,-1,91,93,95,-1,97,99,101,103,105,-1,-1,107,109,111,113,115,-1,117,119,121,123,125,127,129,131,133,135,137,139,141,143,145,147,149,151,-1,153,-1,155,-1,-1,-1,157,-1,-1,159,161,163,165,167,169,171,173,175,-1,-1,177,179,181,183,185,187,189,191,-1,193,-1,195,197,199,201,203,205,207,209,211,213,215,217,219,221,223,225,227,229,231,233,235,237,239,241,-1,243,245,247,-1,249,251,253,-1,255,257,-1,-1,259,261,263,265,267,269,271,273,275,277,279,281,283,285,287,289,291,293,-1,295,297,-1,299,301,-1,303,305,307,-1,-1,-1,309,-1,311,313,315,317,-1,319,321,-1,323,325,327,329,331,333,335,337,339,341,343,345,347,349,351,353,355,357,-1,359,361,363,-1,365,367,369,371,373,375,377,379,381,383,385,387,389,391,393,395,397,399,401,403,405,407,409,411,413,415,-1,-1,-1,417,419,-1,-1,-1,-1,-1,-1,-1,-1,-1,-1,-1,-1,-1,-1,-1,-1,-1,-1,-1,-1,-1,-1,-1,-1,-1,-1,-1,-1,-1,-1,-1,-1,-1,-1,-1,-1,-1,-1,-1,-1,-1,-1,-1,-1,-1,-1,-1,-1,-1,-1,-1,-1,-1,-1,-1,-1,-1,-1,-1,-1,-1,-1,-1,-1,-1,-1,-1,-1,-1,-1,-1,-1,-1,-1,-1,-1,-1,-1,-1,-1,-1,-1,-1,-1,-1,-1,-1,-1,-1,-1,-1,-1,-1,-1,-1,-1,-1,-1,-1,-1,-1,-1,-1,-1,-1,-1,-1,-1,-1,-1,-1,-1,-1,-1,-1,-1,-1,-1,-1,-1,-1,-1,-1,-1,-1,-1,-1,-1,-1,-1,-1,-1,-1,-1,-1,-1,-1,-1,-1,-1,-1,-1,-1,-1,-1,-1,-1,-1,-1,-1,-1,-1,-1,-1,-1,-1,-1,-1,-1,-1,-1,-1,-1,-1,-1,-1,-1,-1],"loss_changes":[6.0397475E5,6.7179E4,3.373143E5,7.4200445E4,9.010594E3,1.9141348E5,5.5765E3,1.1924641E4,1.7844904E4,5.8726562E3,1.4800781E2,8.5044055E4,1.0368369E5,2.3671719E3,0E0,5.627289E3,4.65125E2,6.519829E3,2.0307812E2,2.8504375E3,2.0337734E3,3.286914E1,0E0,6.0774023E4,5.3749844E4,4.2939375E4,7.211989E4,9.0271875E2,0E0,2.3945664E3,5.102383E3,5.1120508E2,0E0,1.22375E2,5.1321454E2,1.1203125E2,0E0,1.854125E3,1.5266406E3,5.2185156E2,0E0,0E0,0E0,1.2269124E4,4.3190016E4,1.9869926E4,2.5955348E4,8.9507875E4,1.6060594E4,4.693753E4,2.8195648E4,5.5171094E2,7.203047E2,0E0,1.2104922E3,1.0171875E1,4.9372852E2,0E0,1.619336E1,1.1575781E2,5.294336E1,1.6387445E2,1.2350322E2,0E0,0E0,5.5983594E2,2.4675938E3,1.543487E2,6.4421875E2,2.0548438E2,0E0,2.512421E3,5.4037617E3,2.7642812E3,2.0334295E4,3.0982617E3,2.0854592E4,3.2252554E3,2.2930484E4,6.4454977E4,2.1870723E4,1.8993344E4,8.1197617E3,2.7392648E4,1.3566907E4,3.2943688E4,3.095028E4,3.3828125E2,5.478594E2,0E0,8.8078125E1,0E0,2.201289E2,0E0,0E0,0E0,8.55791E1,0E0,0E0,8.724512E1,1.1399243E2,1.475481E2,7.043457E1,1.6224313E2,1.167337E2,7.840962E1,6.3405563E1,1.1819922E2,0E0,0E0,4.0858672E3,3.859971E1,2.462033E1,8.1510547E2,1.08984375E2,4.6689648E2,1.9017969E2,5.3613477E2,0E0,4.502497E3,0E0,4.293203E2,2.0845156E3,1.8574578E3,2.5715898E3,2.8418086E3,4.0839648E2,3.6598926E3,1.7913686E4,2.5369287E2,1.8005467E4,5.4467346E2,3.7508906E3,1.2349263E2,2.2990625E2,2.8846484E2,7.2343604E3,5.4660312E3,3.358125E3,1.07552E3,1.83803E4,2.9163574E2,1.1038984E3,7.0253125E2,1.8327215E4,0E0,1.2314201E4,6.8884297E3,3.1930352E3,0E0,3.571631E1,4.3676172E2,1.5833008E2,0E0,2.3586914E1,5.132617E1,0E0,0E0,8.344727E0,6.719971E1,2.1223755E1,1.4328223E2,6.673718E1,1.3757382E2,9.4588806E1,7.834546E1,1.453601E2,6.2951515E1,3.5154465E1,1.415329E2,2.6701614E1,8.7886475E1,6.2475376E1,6.807117E1,1.431218E1,5.0941406E1,0E0,1.4938672E2,7.14375E1,0E0,7.206769E1,2.4701614E1,0E0,8.8746484E2,3.3700977E2,6.74834E1,0E0,0E0,0E0,1.5945703E2,0E0,1.9221082E2,3.1474402E2,6.3959995E3,4.461504E2,0E0,3.250078E2,1.9430682E2,0E0,1.5538281E2,4.0122205E3,3.4864062E2,4.762416E3,5.1117188E1,9.4118555E2,1.2454551E3,1.6338379E1,3.239099E1,1.2734883E3,1.910039E2,1.00444415E3,1.7951355E2,7.0752075E1,2.2634336E3,1.3952197E2,1.6655688E3,6.781238E1,0E0,7.631426E2,6.9789566E1,1.673719E2,0E0,4.84375E-1,6.1166473E1,1.9011719E2,7.444702E1,3.6189648E2,3.7137031E3,2.326582E3,6.578594E2,1.0586352E4,8.901965E1,1.7343115E2,6.678906E1,7.510027E2,7.832077E0,1.9214746E2,3.4298438E2,7.277649E1,9.6120483E2,3.260735E2,1.8644199E3,4.4299292E2,4.592877E3,2.8952871E4,9.430753E2,1.8526602E3,1.9416328E3,0E0,0E0,0E0,2.2072852E2,2.1658984E2,0E0,0E0,0E0,0E0,0E0,0E0,0E0,0E0,0E0,0E0,0E0,0E0,0E0,0E0,0E0,0E0,0E0,0E0,0E0,0E0,0E0,0E0,0E0,0E0,0E0,0E0,0E0,0E0,0E0,0E0,0E0,0E0,0E0,0E0,0E0,0E0,0E0,0E0,0E0,0E0,0E0,0E0,0E0,0E0,0E0,0E0,0E0,0E0,0E0,0E0,0E0,0E0,0E0,0E0,0E0,0E0,0E0,0E0,0E0,0E0,0E0,0E0,0E0,0E0,0E0,0E0,0E0,0E0,0E0,0E0,0E0,0E0,0E0,0E0,0E0,0E0,0E0,0E0,0E0,0E0,0E0,0E0,0E0,0E0,0E0,0E0,0E0,0E0,0E0,0E0,0E0,0E0,0E0,0E0,0E0,0E0,0E0,0E0,0E0,0E0,0E0,0E0,0E0,0E0,0E0,0E0,0E0,0E0,0E0,0E0,0E0,0E0,0E0,0E0,0E0,0E0,0E0,0E0,0E0,0E0,0E0,0E0,0E0,0E0,0E0,0E0,0E0,0E0,0E0,0E0,0E0,0E0,0E0,0E0,0E0,0E0,0E0,0E0,0E0,0E0,0E0,0E0,0E0,0E0,0E0,0E0,0E0,0E0,0E0,0E0,0E0,0E0,0E0,0E0,0E0,0E0,0E0,0E0,0E0,0E0,0E0,0E0,0E0,0E0,0E0,0E0,0E0,0E0],"parents":[2147483647,0,0,1,1,2,2,3,3,4,4,5,5,6,6,7,7,8,8,9,9,10,10,11,11,12,12,13,13,15,15,16,16,17,17,18,18,19,19,20,20,21,21,23,23,24,24,25,25,26,26,27,27,29,29,30,30,31,31,33,33,34,34,35,35,37,37,38,38,39,39,43,43,44,44,45,45,46,46,47,47,48,48,49,49,50,50,51,51,52,52,54,54,55,55,56,56,58,58,59,59,60,60,61,61,62,62,65,65,66,66,67,67,68,68,69,69,71,71,72,72,73,73,74,74,75,75,76,76,77,77,78,78,79,79,80,80,81,81,82,82,83,83,84,84,85,85,86,86,87,87,88,88,90,90,92,92,96,96,99,99,100,100,101,101,102,102,103,103,104,104,105,105,106,106,107,107,110,110,111,111,112,112,113,113,114,114,115,115,116,116,117,117,119,119,121,121,122,122,123,123,124,124,125,125,126,126,127,127,128,128,129,129,130,130,131,131,132,132,133,133,134,134,135,135,136,136,137,137,138,138,139,139,140,140,141,141,142,142,143,143,144,144,146,146,147,147,148,148,150,150,151,151,152,152,154,154,155,155,158,158,159,159,160,160,161,161,162,162,163,163,164,164,165,165,166,166,167,167,168,168,169,169,170,170,171,171,172,172,173,173,174,174,175,175,177,177,178,178,180,180,181,181,183,183,184,184,185,185,189,189,191,191,192,192,193,193,194,194,196,196,197,197,199,199,200,200,201,201,202,202,203,203,204,204,205,205,206,206,207,207,208,208,209,209,210,210,211,211,212,212,213,213,214,214,215,215,216,216,218,218,219,219,220,220,222,222,223,223,224,224,225,225,226,226,227,227,228,228,229,229,230,230,231,231,232,232,233,233,234,234,235,235,236,236,237,237,238,238,239,239,240,240,241,241,242,242,243,243,244,244,245,245,246,246,247,247,251,251,252,252],"right_children":[2,4,6,8,10,12,14,16,18,20,22,24,26,28,-1,30,32,34,36,38,40,42,-1,44,46,48,50,52,-1,54,56,58,-1,60,62,64,-1,66,68,70,-1,-1,-1,72,74,76,78,80,82,84,86,88,90,-1,92,94,96,-1,98,100,102,104,106,-1,-1,108,110,112,114,116,-1,118,120,122,124,126,128,130,132,134,136,138,140,142,144,146,148,150,152,-1,154,-1,156,-1,-1,-1,158,-1,-1,160,162,164,166,168,170,172,174,176,-1,-1,178,180,182,184,186,188,190,192,-1,194,-1,196,198,200,202,204,206,208,210,212,214,216,218,220,222,224,226,228,230,232,234,236,238,240,242,-1,244,246,248,-1,250,252,254,-1,256,258,-1,-1,260,262,264,266,268,270,272,274,276,278,280,282,284,286,288,290,292,294,-1,296,298,-1,300,302,-1,304,306,308,-1,-1,-1,310,-1,312,314,316,318,-1,320,322,-1,324,326,328,330,332,334,336,338,340,342,344,346,348,350,352,354,356,358,-1,360,362,364,-1,366,368,370,372,374,376,378,380,382,384,386,388,390,392,394,396,398,400,402,404,406,408,410,412,414,416,-1,-1,-1,418,420,-1,-1,-1,-1,-1,-1,-1,-1,-1,-1,-1,-1,-1,-1,-1,-1,-1,-1,-1,-1,-1,-1,-1,-1,-1,-1,-1,-1,-1,-1,-1,-1,-1,-1,-1,-1,-1,-1,-1,-1,-1,-1,-1,-1,-1,-1,-1,-1,-1,-1,-1,-1,-1,-1,-1,-1,-1,-1,-1,-1,-1,-1,-1,-1,-1,-1,-1,-1,-1,-1,-1,-1,-1,-1,-1,-1,-1,-1,-1,-1,-1,-1,-1,-1,-1,-1,-1,-1,-1,-1,-1,-1,-1,-1,-1,-1,-1,-1,-1,-1,-1,-1,-1,-1,-1,-1,-1,-1,-1,-1,-1,-1,-1,-1,-1,-1,-1,-1,-1,-1,-1,-1,-1,-1,-1,-1,-1,-1,-1,-1,-1,-1,-1,-1,-1,-1,-1,-1,-1,-1,-1,-1,-1,-1,-1,-1,-1,-1,-1,-1,-1,-1,-1,-1,-1,-1,-1,-1,-1,-1,-1,-1,-1,-1,-1,-1,-1,-1],"split_conditions":[-4.1733766E-1,-8.080859E-2,2.2081115E0,2.8412336E-1,7.066919E0,-2.8676933E-2,3.9737294E0,-2.8676933E-2,1.3556894E0,2.2081115E0,-2.8676933E-2,2.8412336E-1,5.5462513E-2,7.066919E0,6.3733525E0,8.608401E-1,-2.997595E-1,5.5462513E-2,-2.8676933E-2,2.8412336E-1,3.9737294E0,-4.69431E-1,5.0009155E0,-8.080859E-2,5.5462513E-2,-2.997595E-1,2.8412336E-1,-2.8676933E-2,5.907442E0,-2.997595E-1,1.4411398E0,5.5462513E-2,1.8821688E0,4.4249362E-1,-1.0269725E0,-2.997595E-1,1.8062501E0,5.5462513E-2,-1.6941826E0,2.8412336E-1,6.0556364E0,2.8571372E0,5.998003E0,5.5462513E-2,-2.997595E-1,1.3556894E0,1.3556894E0,-8.080859E-2,1.3556894E0,-2.997595E-1,-8.080859E-2,5.5462513E-2,-8.080859E-2,1.7998791E0,5.5462513E-2,3.9737294E0,5.5462513E-2,1.8877703E0,2.2081115E0,-1.3317901E0,-4.605994E-1,-5.7697463E-1,-7.2215515E-1,1.8092784E0,2.54404E0,-2.997595E-1,-2.997595E-1,1.2516993E0,-2.8676933E-2,-2.8676933E-2,3.6306872E0,7.066919E0,7.066919E0,5.5462513E-2,5.5462513E-2,-8.080859E-2,-8.080859E-2,-8.080859E-2,-8.080859E-2,2.8412336E-1,2.8412336E-1,2.8412336E-1,8.608401E-1,-8.080859E-2,8.608401E-1,-2.997595E-1,-2.997595E-1,-2.997595E-1,2.8412336E-1,2.6653259E0,2.8412336E-1,2.5441065E0,7.066919E0,5.855978E0,7.0925326E0,2.3486218E0,-2.381436E0,2.6020837E0,3.1415894E0,-2.9446653E-1,1.3249147E0,7.888322E-1,-4.69431E-1,6.6299933E-1,6.874267E-1,1.1239575E0,3.563603E-1,1.6265558E0,2.4300647E0,4.5298934E0,-2.8676933E-2,-4.605994E-1,4.3215767E-1,8.608401E-1,-3.4655123E0,-1.19502E-1,-2.997595E-1,4.4249362E-1,4.9833264E0,1.4411398E0,5.713287E0,-4.8408437E0,-2.0842538E0,8.608401E-1,8.608401E-1,8.608401E-1,1.4411398E0,-2.997595E-1,-2.997595E-1,-1.0398208E0,-2.997595E-1,1.4411398E0,-2.997595E-1,4.4249362E-1,4.4249362E-1,-3.6708086E0,1.3556894E0,-8.080859E-2,8.608401E-1,-8.080859E-2,1.4411398E0,-1.1252021E-1,3.8913405E0,-1.1252021E-1,1.4411398E0,-2.8031893E0,8.608401E-1,1.3556894E0,7.066919E0,4.376766E0,-1.1252021E-1,-8.080859E-2,-8.080859E-2,4.260082E0,-4.8408437E0,6.619972E-1,5.3978767E0,1.1396774E0,7.066919E0,-4.605994E-1,1.2797183E-1,5.075887E-1,3.2220834E-1,-1.6941826E0,5.0696564E-1,-8.714665E-2,8.5759364E-2,2.938931E-1,1.6223887E0,4.4249362E-1,4.4249362E-1,2.2081115E0,6.6299933E-1,9.5166765E-2,4.3795925E-1,8.352164E-1,1.4652996E0,6.5914005E-1,8.608401E-1,5.547581E-1,-3.6708086E0,1.599324E-1,1.3967744E-1,5.5462513E-2,1.3556894E0,-4.100952E-1,2.677053E0,3.0155487E0,5.3807755E0,5.5462513E-2,3.709432E0,-1.826216E-1,1.1067497E0,8.608401E-1,-8.2619466E-2,-9.45242E-1,7.066919E0,7.9374725E-1,6.0106125E0,-1.1252021E-1,1.4411398E0,-1.0398208E0,1.4411398E0,-1.7652472E0,1.4411398E0,8.608401E-1,9.8358735E-2,4.4249362E-1,4.4249362E-1,7.066919E0,1.4411398E0,1.4411398E0,1.9229725E-1,-1.0398208E0,-4.8408437E0,8.608401E-1,2.9252365E-1,4.414622E0,8.608401E-1,6.5926313E-1,2.4759428E-1,-3.7089705E0,6.6299933E-1,1.5358105E-1,-1.1252021E-1,-2.374615E0,-1.1252021E-1,4.4249362E-1,8.608401E-1,4.4249362E-1,1.4411398E0,-2.9446653E-1,6.6299933E-1,4.4249362E-1,-8.080859E-2,6.5879697E-1,-1.0398208E0,7.066919E0,-6.478375E-1,-8.080859E-2,-8.080859E-2,-8.080859E-2,-1.0398208E0,1.3556894E0,1.4411398E0,-1.1252021E-1,3.8913405E0,2.3566422E0,5.0958266E0,4.524597E0,2.9448605E0,-2.997595E-1,2.805403E-1,2.6170564E0,4.3369703E0,8.547581E-1,3.614337E0,3.9319916E0,1.3396775E0,3.7337532E0,5.0785646E0,-1.2541426E0,-2.0812294E0,2.547581E-1,-9.822581E-1,-1.3204755E0,-4.7746775E-1,-1.3836808E0,-2.4814358E0,1.9047581E0,-6.6518027E-1,-1.6301095E0,-1.7540322E-1,-8.3506054E-1,-1.2645134E0,-8.693952E-1,-1.7848977E0,2.318094E-3,6.490404E-1,-1.2214355E0,-1.3238709E-1,1.9167417E-1,6.7405E-1,4.047581E-1,-9.7540325E-1,-2.1685281E-1,1.4396775E0,5.1196164E-1,-2.8294355E-1,-4.5461867E-2,-6.667453E-1,2.857072E-1,-3.678629E-1,3.2202098E0,1.2821372E0,4.5899277E0,2.7085645E0,3.1602213E0,2.8520272E0,-2.2603226E0,-4.166734E-1,1.9396775E0,1.0475808E-1,2.403564E0,3.9206364E0,1.6758945E0,2.8792617E0,2.1155484E0,3.207421E0,3.7188137E0,4.846723E0,-1.1765702E0,-5.684814E-1,-2.8640476E-1,3.626393E-1,1.4569061E0,-4.2214847E-1,3.2235434E0,1.2755485E0,4.315541E0,5.5778155E0,2.4708266E0,-7.238709E-2,3.4059423E-1,1.2773931E0,-9.658807E-1,1.2974145E0,3.2937658E0,4.866825E0,1.6333665E0,4.6656475E0,-1.0714356E0,-2.0063744E0,-3.4876175E0,-1.1436163E0,-1.6418426E0,-5.775531E-1,-1.6256802E0,-2.1894672E0,-6.6306174E-1,-3.898886E-1,-2.6347914E0,-1.5792048E0,2.9919088E0,4.3755484E0,-5.689411E-1,5.251091E-1,-1.518933E0,-4.3671373E-1,-3.4413034E-1,-5.533491E-1,1.312097E-1,3.8322031E0,-2.0523872E0,-4.4621438E-1,7.45365E-1,-5.739007E-1,1.4109995E0,8.434763E-1,3.2872128E0,2.241225E0,-1.8322138E-1,-1.1489862E0,2.2634158E-1,-1.1080819E-1,-3.2607055E0,-3.5401192E0,-9.45242E-1,1.0676129E0,9.2459685E-1,3.0271208E0,4.3672812E-1,-5.714362E-1,1.816018E-1,1.3119044E0,-2.988096E0,-2.0479505E0,-1.286965E0,-2.0272691E0,-3.7082784E0,-3.2479947E0,-1.6851963E0,-3.5575213E0,-6.0755634E-1,-2.506028E-1,-1.085402E0,-1.5159718E0,-3.7525182E0,-3.3405278E0,-4.7052434E-1,-1.2298542E0,4.1427824E-1,-6.78629E-2,4.8570687E-1,1.2507603E0,4.409823E0,5.583714E0,4.745968E-1,2.0583267E0,2.865726E-1,2.1281176E0,6.9081736E-1,3.030536E-1,-2.074216E0,-1.1540232E0,-4.2746773E-1,7.710331E-1,-6.544349E-1,6.478362E-1,-3.047296E0,-3.476206E-1,1.8206636E0,3.0865395E-1,2.767905E0,-1.282258E0,-1.0121936E0,-3.5628542E-2,1.607613E0,4.4953146E0,5.9638553E0,4.5741243E0],"split_indices":[1,18,11,7,12,8,11,8,7,11,8,7,0,12,0,6,6,0,8,7,11,0,0,18,0,6,7,8,0,6,6,0,0,11,1,6,0,0,0,7,0,0,0,0,6,7,7,18,7,6,18,0,18,0,0,11,0,0,11,1,9,2,1,0,0,6,6,10,8,8,0,12,12,0,0,18,18,18,18,7,7,7,6,18,6,6,6,6,7,0,7,0,12,0,0,0,4,0,0,0,9,14,0,13,5,16,3,2,0,0,8,9,9,6,1,0,6,11,0,6,0,2,2,6,6,6,6,6,6,17,6,6,6,11,11,2,7,18,6,18,6,1,18,1,6,0,6,7,12,0,1,18,18,0,2,3,0,0,12,9,3,4,5,0,2,18,17,3,15,11,11,11,13,5,3,5,0,3,6,0,2,3,0,0,7,10,0,0,0,0,0,16,1,6,18,0,12,4,0,1,6,17,6,14,6,6,5,11,11,12,6,6,1,17,2,6,5,0,6,3,3,0,13,3,1,4,1,11,6,11,6,0,13,11,18,3,17,12,14,18,18,18,17,7,6,1,18,8,0,0,0,6,6,0,0,0,0,0,0,0,0,0,0,0,0,0,0,0,0,0,0,0,0,0,0,0,0,0,0,0,0,0,0,0,0,0,0,0,0,0,0,0,0,0,0,0,0,0,0,0,0,0,0,0,0,0,0,0,0,0,0,0,0,0,0,0,0,0,0,0,0,0,0,0,0,0,0,0,0,0,0,0,0,0,0,0,0,0,0,0,0,0,0,0,0,0,0,0,0,0,0,0,0,0,0,0,0,0,0,0,0,0,0,0,0,0,0,0,0,0,0,0,0,0,0,0,0,0,0,0,0,0,0,0,0,0,0,0,0,0,0,0,0,0,0,0,0,0,0,0,0,0,0,0,0,0,0,0,0,0,0,0,0,0,0,0,0,0,0,0,0],"split_type":[0,0,0,0,0,0,0,0,0,0,0,0,0,0,0,0,0,0,0,0,0,0,0,0,0,0,0,0,0,0,0,0,0,0,0,0,0,0,0,0,0,0,0,0,0,0,0,0,0,0,0,0,0,0,0,0,0,0,0,0,0,0,0,0,0,0,0,0,0,0,0,0,0,0,0,0,0,0,0,0,0,0,0,0,0,0,0,0,0,0,0,0,0,0,0,0,0,0,0,0,0,0,0,0,0,0,0,0,0,0,0,0,0,0,0,0,0,0,0,0,0,0,0,0,0,0,0,0,0,0,0,0,0,0,0,0,0,0,0,0,0,0,0,0,0,0,0,0,0,0,0,0,0,0,0,0,0,0,0,0,0,0,0,0,0,0,0,0,0,0,0,0,0,0,0,0,0,0,0,0,0,0,0,0,0,0,0,0,0,0,0,0,0,0,0,0,0,0,0,0,0,0,0,0,0,0,0,0,0,0,0,0,0,0,0,0,0,0,0,0,0,0,0,0,0,0,0,0,0,0,0,0,0,0,0,0,0,0,0,0,0,0,0,0,0,0,0,0,0,0,0,0,0,0,0,0,0,0,0,0,0,0,0,0,0,0,0,0,0,0,0,0,0,0,0,0,0,0,0,0,0,0,0,0,0,0,0,0,0,0,0,0,0,0,0,0,0,0,0,0,0,0,0,0,0,0,0,0,0,0,0,0,0,0,0,0,0,0,0,0,0,0,0,0,0,0,0,0,0,0,0,0,0,0,0,0,0,0,0,0,0,0,0,0,0,0,0,0,0,0,0,0,0,0,0,0,0,0,0,0,0,0,0,0,0,0,0,0,0,0,0,0,0,0,0,0,0,0,0,0,0,0,0,0,0,0,0,0,0,0,0,0,0,0,0,0,0,0,0,0,0,0,0,0,0,0,0,0,0,0,0,0,0,0,0,0,0,0,0,0,0],"sum_hessian":[3.6474E4,6.439E3,3.0035E4,2.703E3,3.736E3,2.9028E4,1.007E3,1.275E3,1.428E3,3.527E3,2.09E2,8.4E3,2.0628E4,8.28E2,1.79E2,6.46E2,6.29E2,1.131E3,2.97E2,2.948E3,5.79E2,8.1E1,1.28E2,3.221E3,5.179E3,1.0618E4,1.001E4,7.28E2,1E2,3.54E2,2.92E2,3.81E2,2.48E2,5.52E2,5.79E2,1.42E2,1.55E2,1.613E3,1.335E3,5.26E2,5.3E1,3E0,7.8E1,1.776E3,1.445E3,2.745E3,2.434E3,3.192E3,7.426E3,3.31E3,6.7E3,4.39E2,2.89E2,8.3E1,2.71E2,1.72E2,1.2E2,1.19E2,2.62E2,2.02E2,3.5E2,3.49E2,2.3E2,3.9E1,1.03E2,4.61E2,1.152E3,1.5E1,1.32E3,2.96E2,2.3E2,8.76E2,9E2,5.73E2,8.72E2,1.481E3,1.264E3,1.393E3,1.041E3,1.985E3,1.207E3,5.595E3,1.831E3,9.77E2,2.333E3,4.029E3,2.671E3,1.46E2,2.93E2,4.9E1,2.4E2,7.1E1,2E2,1.43E2,2.9E1,3.2E1,8.8E1,2.29E2,3.3E1,8.1E1,1.21E2,8.3E1,2.67E2,7.4E1,2.75E2,1.28E2,1.02E2,2.97E2,1.64E2,2.39E2,9.13E2,1E1,5E0,3.76E2,9.44E2,6.9E1,2.27E2,8.69E2,7E0,8.77E2,2.3E1,2.98E2,2.75E2,5.38E2,3.34E2,6.91E2,7.9E2,6.54E2,6.1E2,7.52E2,6.41E2,5.63E2,4.78E2,7.53E2,1.232E3,3.72E2,8.35E2,3.123E3,2.472E3,9.22E2,9.09E2,6.29E2,3.48E2,1.053E3,1.28E3,1.385E3,2.644E3,5.73E2,2.098E3,9.7E1,4.9E1,1.85E2,1.08E2,1.59E2,8.1E1,1.83E2,1.7E1,2E0,8.6E1,7E1,1.1E1,8.5E1,3.6E1,5.1E1,3.2E1,1.89E2,7.8E1,6.1E1,1.3E1,2.69E2,6E0,8.1E1,4.7E1,8.7E1,1.5E1,2.91E2,6E0,2.28E2,6.85E2,1E0,9E0,3E0,2E0,2.29E2,1.47E2,1.13E2,8.31E2,1.4E1,5.5E1,1.15E2,1.12E2,2.57E2,6.12E2,7.72E2,1.05E2,1E0,2.97E2,1.1E1,2.64E2,2.57E2,2.81E2,1.39E2,1.95E2,4.68E2,2.23E2,6.8E2,1.1E2,2.08E2,4.46E2,2.18E2,3.92E2,6.1E1,6.91E2,1.39E2,5.02E2,4.66E2,9.7E1,1.93E2,2.85E2,2.24E2,5.29E2,6.27E2,6.05E2,5E0,3.67E2,4.77E2,3.58E2,1.576E3,1.547E3,1.348E3,1.124E3,4.3E2,4.92E2,4.37E2,4.72E2,4.2E1,5.87E2,3.36E2,1.2E1,1.06E2,9.47E2,8.1E2,4.7E2,1.205E3,1.439E3,2.85E2,2.88E2,2.091E3,7E0,5E0,4.4E1,6E1,1.25E2,1.1E1,9.7E1,1E0,8E1,1.81E2,2E0,7.7E1,9E0,1.8E1,5.2E1,1E0,1E1,5.6E1,2.9E1,2.7E1,9E0,1E0,5E1,2.7E1,5E0,7.1E1,1.18E2,2.7E1,5.1E1,4.2E1,1.9E1,9E0,4E0,7.8E1,1.91E2,1E0,5E0,7.9E1,2E0,3.6E1,1.1E1,2.1E1,6.6E1,1.2E1,3E0,2.88E2,3E0,2.19E2,9E0,4.11E2,2.74E2,2E0,7E0,2E0,1E0,5.1E1,1.78E2,3.2E1,1.15E2,1.4E1,9.9E1,4.1E1,7.4E1,6.3E1,1.94E2,5.36E2,7.6E1,5.39E2,2.33E2,9.1E1,1.4E1,2.63E2,3.4E1,7E0,4E0,1.8E1,2.39E2,1.49E2,1.32E2,2.5E1,1.14E2,1.16E2,7.9E1,9E0,4.59E2,2.05E2,1.8E1,5.58E2,1.22E2,2.2E1,8.8E1,5.7E1,1.51E2,1.73E2,2.73E2,2.04E2,1.4E1,2.91E2,1.01E2,3.8E1,2.3E1,2.21E2,4.7E2,1.7E1,1.22E2,4E0,4.98E2,3.53E2,1.13E2,6E1,3.7E1,1.16E2,1.69E2,2.18E2,6E0,2.54E2,2.75E2,3.58E2,2.47E2,1E0,4E0,5E0,3.62E2,6E0,4.71E2,2.8E1,3.3E2,6.65E2,9.11E2,7.92E2,7.55E2,7.02E2,6.46E2,4.7E2,6.54E2,3.51E2,7.9E1,3.71E2,1.21E2,2.2E2,2.17E2,2.34E2,2.38E2,3.9E1,3E0,3.3E1,5.54E2,2.94E2,4.2E1,5E0,7E0,4.3E1,6.3E1,6.68E2,2.79E2,4.41E2,3.69E2,2.9E1,4.41E2,8.67E2,3.38E2,6.61E2,7.78E2,4.3E1,2.42E2,2.78E2,1E1,1.888E3,2.03E2,4E0,5.6E1,8.9E1,3.6E1],"tree_param":{"num_deleted":"0","num_feature":"19","num_nodes":"421","size_leaf_vector":"1"}},{"base_weights":[5.8875177E-3,6.1717815E0,-1.3161381E0,3.5066044E0,8.098585E0,-1.7551564E0,1.1328283E1,7.4095507E0,1.9084543E-2,7.8268094E0,1.2625858E1,1.0664134E0,-2.9041336E0,1.0537669E1,4.471969E0,9.547563E0,5.2020855E0,-1.2566983E0,4.8652825E0,7.413825E0,9.913127E0,3.0736325E0,1.3249381E1,3.8994358E0,-6.959544E-1,-4.4304137E0,-1.2848678E0,1.0065341E1,1.3842522E1,7.608659E0,1.1864161E1,5.7117577E0,1.3197861E0,-2.9898536E0,3.9794245E-1,5.528482E0,1.2678487E0,8.050426E0,6.6392093E0,9.450755E0,4.2725873E0,1.4086232E1,3.2443936E0,1.1487323E0,7.2770987E0,-2.8231013E0,1.7031592E0,-2.280588E0,-5.3540654E0,1.3909683E0,-2.606821E0,1.0767626E1,8.965096E0,4.351818E0,3.240135E0,1.2663435E0,8.62683E0,1.4318115E1,8.257564E0,1.3261588E0,6.2791934E0,-2.7360654E0,-3.6983647E0,9.3031085E-1,-4.10399E-1,1.2800643E0,5.9605546E0,6.8211412E0,8.53601E0,-3.6906612E-1,6.7190676E0,1.0168273E1,8.48732E0,2.8768682E0,4.4718204E0,-7.203351E-1,2.9667382E0,1.2001185E1,4.162663E0,-4.5671563E0,-7.776366E-1,-2.787599E-1,4.3529596E0,-5.1740265E0,2.4782283E0,-6.5951576E0,-4.462398E0,5.4720206E0,-3.1968293E-1,-3.7775795E0,-8.4006816E-1,1.146002E1,9.352596E0,6.272401E0,9.486547E0,5.9715834E0,9.535044E0,4.111384E0,5.035698E0,5.551288E0,9.168232E0,6.082842E0,2.2268322E0,-2.2950213E0,-3.3061745E0,-2.7929914E0,-4.265961E0,2.1988688E0,5.996066E-1,-1.4656048E0,-9.5671006E-2,7.09728E-1,6.043907E0,7.427391E0,5.6848774E0,1.0588625E1,7.987691E0,-2.1030478E0,2.8714113E0,7.5554237E0,6.3783E0,1.1671834E1,9.662055E0,9.491429E0,7.9729342E0,-8.387809E-1,3.6752038E0,7.31451E-1,4.53724E0,1.0429538E1,1.366032E1,1.478594E0,8.468783E0,-5.6550565E0,-3.609642E0,-3.530756E0,2.1750164E0,-1.2641734E0,8.7746304E-1,1.3139366E0,7.9221787E0,-6.670668E-2,-8.293041E0,6.94111E0,4.8404992E-1,-7.049497E0,-4.814694E0,-5.0663757E0,-2.8834984E0,2.695845E0,1.0467775E1,1.5436339E0,-1.8525606E0,-6.542798E0,-2.3271558E0,3.7187073E0,-2.0863268E0,1.2661852E1,1.0091675E1,6.855091E0,9.728299E0,1.1421499E0,6.6513224E0,2.4059126E0,1.0113579E1,4.7314227E-1,1.803379E0,9.154538E0,3.868478E0,3.5246488E-1,1.6954008E0,1.010948E1,7.4271793E0,6.4239435E0,1.6646758E0,-3.544387E0,-1.8366553E0,-3.4852805E0,-1.530445E0,-4.124104E0,-1.3196683E0,-5.447402E0,-3.3483562E0,9.798586E-1,2.952333E0,-5.9754586E-1,1.0426654E0,-1.6460056E0,1.1872859E0,3.7075353E-1,-7.183471E-1,1.8276545E0,7.308693E-1,6.743846E0,8.022759E0,4.840137E0,1.7856165E0,1.0674159E1,1.6421233E0,1.0596773E1,7.1050854E0,-3.6181383E0,-2.3744933E-1,4.027762E0,1.1174202E-1,-2.0171616E0,7.663487E0,7.2611003E0,6.2496734E0,7.2373157E0,1.2651226E1,1.0527462E1,8.688168E0,2.3007746E0,9.766732E0,2.4385393E0,5.600953E0,-5.235333E-1,-2.0276093E0,1.2069985E0,2.8168136E-1,9.6635275E0,1.7980083E0,-8.0345565E-1,1.0482511E1,3.9730017E0,4.2142334E0,2.8374333E0,2.301573E-1,7.7916465E0,1.5614836E1,-4.6515694E0,-7.7308617E0,-2.5893059E0,-4.1575255E0,-1.0960181E0,-4.661247E0,7.2677684E0,-6.684639E-1,-2.6553957E0,-1.1376995E0,7.9236894E0,-1.0854577E0,9.9183136E-1,2.8354592E0,9.829497E0,5.79703E0,-3.3447832E-1,3.776143E-1,-8.66017E0,-7.8989005E0,6.7561746E0,3.4628124E0,-1.3019736E0,2.8607497E0,-6.0231147E0,-8.067692E0,-2.6914494E0,-6.508056E0,-3.984549E0,-6.7160664E0,-1.811608E0,-4.1074667E0,8.9253503E-1,2.823135E0,4.341567E0,1.0729906E1,1.5037625E0,3.4901907E0,-3.8702137E0,1.6255058E0,-2.236378E0,-1.9496406E0,-3.3616865E0,2.2430187E-1,1.2729278E0,6.1262307E0,-2.1412132E0,3.758172E0,1.2217859E0,1.2867867E1,7.711162E0,1.0895057E1,7.4135165E0,7.047577E-1,6.3245535E0,9.994253E0,2.3312266E0,5.031409E0,1.0531285E1,8.494033E0,2.676129E0,4.1399302E0,3.2253466E0,1.690569E0,7.2280127E-1,2.3990767E0,3.144456E-1,1.9369446E0,4.7589973E-1,-1.1496475E0,3.5157105E-1,-6.08175E-1,-1.3899847E0,-9.380322E-1,1.2911173E-2,-1.0508033E0,-3.920636E-1,-1.47741E0,-6.7421925E-1,2.0032707E-1,-1.6805947E0,-5.564976E-3,-3.605269E-1,-1.0987644E0,6.7559564E-1,-6.291931E-1,9.865584E-1,-3.69524E-1,-3.1798285E-1,1.2335362E0,1.6890432E-1,8.4764236E-1,-5.344177E-1,7.888064E-1,2.7708235E-1,-2.3351413E-1,7.4876976E-1,-2.5120172E-1,1.4386717E0,2.156872E0,2.4529185E0,1.0885082E0,1.0317156E0,1.6278135E0,2.6908104E0,3.2782953E0,3.490191E0,2.8168073E0,2.0147824E0,2.4051383E0,1.2586899E-1,-1.7225641E0,-7.7698785E-1,4.758887E-1,1.5517418E0,8.904448E-2,-2.0682685E0,1.0596877E0,2.5544777E0,1.8844062E0,2.283289E0,1.5333635E0,1.6970862E0,1.9115227E0,2.3877807E0,9.786387E-1,2.9233236E0,4.1005325E0,2.6297326E0,3.4120924E0,2.6190374E0,5.983432E-1,8.135399E-1,1.6015492E-1,1.2169249E0,3.0430746E0,9.7624785E-1,1.88472E0,-3.418385E-1,1.6674411E-1,-9.3200856E-1,-2.1950746E-1,4.698249E-1,2.1382345E-1,2.6674509E-2,5.32788E-1,1.3236971E0,3.093898E0,-2.9604536E-1,2.2646716E0,3.0257828E0,3.9522808E0,6.9404894E-1,3.334134E0,-1.436851E0,8.657239E-1,-6.78048E-1,9.111166E-1,3.0098972E0,1.8802731E0,4.8271284E0,1.8864303E0,-1.1388123E0,-1.455083E0,-2.4464114E0,-8.185887E-1,-6.790654E-1,-8.189948E-1,-1.5168E0,-9.168344E-1,-1.7801353E-1,-4.267238E-1,-1.8488965E0,-1.1071725E0,2.0987146E0,3.1503947E0,3.3369422E-1,-5.766409E-1,-1.7714036E0,-5.516376E-1,-4.2738146E-1,-2.6655325E-1,-1.1621524E0,2.6004117E0,-4.6326676E-1,-1.7167312E-1,5.2238715E-1,-4.032409E-1,2.9467428E-1,9.475628E-1,2.8376281E0,3.8407824E0,1.2788079E0,2.5804346E0,-3.830091E-2,-3.625649E-1,1.5335268E-1,-6.704169E-1,-2.6054368E0,-1.3981605E0,-2.2852185E0,-2.4823658E0,4.083362E-1,2.0484374E0,-1.8135475E-1,-4.3474078E-1,-1.7096734E0,8.7739986E-1,-1.4012185E0,-2.184974E0,-2.5973773E0,-2.1831107E0,-4.9407688E-1,-1.0780916E0,-2.6318564E0,-8.0007917E-1,-9.156794E-1,-1.4714366E0,-2.2751021E0,-1.7264656E0,-3.286989E-1,-7.29129E-1,-2.342966E0,-5.206303E-1,4.2990234E-1,1.4521004E-1,9.052594E-1,5.6354314E-1,4.011032E-1,1.9589664E0,3.1006567E0,3.9475558E0,9.156986E-1,3.9914253E-1,-1.4533592E0,-8.087521E-1,-3.0350223E-1,5.402467E-1,-4.5833084E-1,-1.478007E0,-2.1361323E-1,8.4987247E-1,-1.8678236E0,4.7865853E-1,1.94051E0,-9.325516E-1,-8.5365766E-1,-2.7548528E-1,3.3244793E0,4.267605E0,3.3934476E0,2.0547035E0,3.3541849E0,1.614475E0,2.2818444E0,5.6302905E-1,9.1829956E-1,2.1216884E0,8.042124E-1,3.0102577E0,1.3041334E0,2.7049594E0,3.3212554E0,2.6758847E0,2.9998846E0,2.018209E0],"categories":[],"categories_nodes":[],"categories_segments":[],"categories_sizes":[],"default_left":[0,0,0,0,0,0,0,0,0,0,0,0,0,0,0,0,0,0,0,0,0,0,0,0,0,0,0,0,0,0,0,0,0,0,0,0,0,0,0,0,0,0,0,0,0,0,0,0,0,0,0,0,0,0,0,0,0,0,0,0,0,0,0,0,0,0,0,0,0,0,0,0,0,0,0,0,0,0,0,0,0,0,0,0,0,0,0,0,0,0,0,0,0,0,0,0,0,0,0,0,0,0,0,0,0,0,0,0,0,0,0,0,0,0,0,0,0,0,0,0,0,0,0,0,0,0,0,0,0,0,0,0,0,0,0,0,0,0,0,0,0,0,0,0,0,0,0,0,0,0,0,0,0,0,0,0,0,0,0,0,0,0,0,0,0,0,0,0,0,0,0,0,0,0,0,0,0,0,0,0,0,0,0,0,0,0,0,0,0,0,0,0,0,0,0,0,0,0,0,0,0,0,0,0,0,0,0,0,0,0,0,0,0,0,0,0,0,0,0,0,0,0,0,0,0,0,0,0,0,0,0,0,0,0,0,0,0,0,0,0,0,0,0,0,0,0,0,0,0,0,0,0,0,0,0,0,0,0,0,0,0,0,0,0,0,0,0,0,0,0,0,0,0,0,0,0,0,0,0,0,0,0,0,0,0,0,0,0,0,0,0,0,0,0,0,0,0,0,0,0,0,0,0,0,0,0,0,0,0,0,0,0,0,0,0,0,0,0,0,0,0,0,0,0,0,0,0,0,0,0,0,0,0,0,0,0,0,0,0,0,0,0,0,0,0,0,0,0,0,0,0,0,0,0,0,0,0,0,0,0,0,0,0,0,0,0,0,0,0,0,0,0,0,0,0,0,0,0,0,0,0,0,0,0,0,0,0,0,0,0,0,0,0,0,0,0,0,0,0,0,0,0,0,0,0,0,0,0,0,0,0,0,0,0,0,0,0,0,0,0,0,0,0,0,0,0,0,0,0,0,0,0,0,0,0,0,0,0,0,0,0,0,0,0,0,0,0,0,0,0,0,0,0,0,0,0,0,0,0,0,0,0,0,0,0,0,0,0,0,0,0,0,0,0,0,0,0,0,0,0,0,0,0,0,0,0,0,0,0,0,0,0,0,0,0,0,0],"id":1,"left_children":[1,3,5,7,9,11,13,15,17,19,21,23,25,27,-1,29,31,33,35,37,39,-1,41,43,45,47,49,51,53,55,57,59,-1,61,63,65,-1,67,69,71,-1,73,-1,75,77,79,81,83,85,87,89,91,93,-1,-1,-1,95,97,99,-1,101,103,105,107,109,-1,111,113,115,117,119,121,123,-1,-1,125,127,129,131,133,135,137,139,141,143,145,147,149,151,153,155,157,159,161,163,165,167,-1,-1,169,171,173,-1,175,177,179,181,183,185,187,189,-1,191,193,195,197,199,201,203,205,207,209,211,213,215,217,-1,219,221,223,225,227,229,231,233,235,237,239,241,243,245,247,249,251,253,255,257,259,261,263,265,267,269,271,273,275,277,279,281,283,285,-1,287,-1,289,-1,-1,291,-1,-1,-1,293,295,297,-1,299,301,303,305,307,309,311,313,315,317,319,321,323,-1,325,327,-1,-1,329,331,333,-1,335,-1,337,339,341,343,345,-1,347,349,351,353,355,357,359,361,363,365,-1,367,369,371,373,375,377,379,-1,381,383,-1,385,387,389,391,393,395,397,399,401,403,405,407,409,411,413,415,417,419,421,423,425,427,429,431,433,-1,435,437,439,441,443,445,447,449,451,453,455,457,459,461,463,-1,465,467,-1,-1,469,471,473,475,477,-1,-1,479,481,483,485,-1,487,489,-1,491,493,495,-1,-1,-1,-1,-1,-1,-1,-1,-1,-1,-1,-1,-1,-1,-1,-1,-1,-1,-1,-1,-1,-1,-1,-1,-1,-1,-1,-1,-1,-1,-1,-1,-1,-1,-1,-1,-1,-1,-1,-1,-1,-1,-1,-1,-1,-1,-1,-1,-1,-1,-1,-1,-1,-1,-1,-1,-1,-1,-1,-1,-1,-1,-1,-1,-1,-1,-1,-1,-1,-1,-1,-1,-1,-1,-1,-1,-1,-1,-1,-1,-1,-1,-1,-1,-1,-1,-1,-1,-1,-1,-1,-1,-1,-1,-1,-1,-1,-1,-1,-1,-1,-1,-1,-1,-1,-1,-1,-1,-1,-1,-1,-1,-1,-1,-1,-1,-1,-1,-1,-1,-1,-1,-1,-1,-1,-1,-1,-1,-1,-1,-1,-1,-1,-1,-1,-1,-1,-1,-1,-1,-1,-1,-1,-1,-1,-1,-1,-1,-1,-1,-1,-1,-1,-1,-1,-1,-1,-1,-1,-1,-1,-1,-1,-1,-1,-1,-1,-1,-1,-1,-1,-1,-1,-1,-1,-1,-1,-1,-1,-1,-1,-1,-1,-1,-1,-1,-1,-1,-1,-1,-1,-1,-1,-1,-1,-1,-1,-1,-1,-1,-1,-1,-1,-1,-1,-1],"loss_changes":[2.97333E5,3.3042797E4,1.6675366E5,3.680563E4,4.4991875E3,9.411279E4,2.694586E3,5.9725312E3,8.841187E3,2.9662812E3,1.7594531E2,4.1947453E4,5.097792E4,1.1547266E3,0E0,2.815836E3,2.3264453E2,3.247482E3,1.02947754E2,1.4007656E3,1.0262891E3,0E0,1.7977734E2,2.9927082E4,2.6439734E4,2.1073828E4,3.5415836E4,4.6675E2,4.719922E1,1.1880039E3,2.4749414E3,2.5212988E2,0E0,8.9316895E1,2.4997635E2,5.25166E1,0E0,9.052031E2,7.502031E2,2.780078E2,0E0,2.920664E2,0E0,6.0403403E3,2.1224852E4,9.792537E3,1.2789079E4,4.3978336E4,8.1895938E3,2.311669E4,1.3857449E4,3.2391406E2,3.4768945E2,0E0,0E0,0E0,5.989961E2,3.1851562E1,2.473125E2,0E0,1.3904297E1,9.5755615E1,6.15708E1,1.4551266E2,7.657553E1,0E0,1.686377E1,2.7603125E2,1.2131094E3,9.594157E1,3.2829297E2,1.1328125E2,4.363672E1,0E0,0E0,1.3576642E3,3.1596611E3,1.3542812E3,1.0077547E4,1.5233555E3,1.0290873E4,1.5893739E3,1.1292102E4,3.1636035E4,1.0747578E4,2.4762031E3,4.1098047E3,1.3535754E4,6.669317E3,1.6148047E4,1.5188497E4,3.5077734E2,7.406055E1,2.138379E1,1.4055078E2,3.074463E0,1.3892383E2,0E0,0E0,7.809387E0,7.076416E1,6.2421875E0,0E0,1.280669E2,5.0959717E1,1.0830475E2,7.499255E1,6.3237762E1,1.486071E2,5.8367035E1,5.225355E1,0E0,2.7475586E0,6.716992E1,8.431641E0,4.6572266E1,2.029457E3,3.023293E1,1.5837654E1,4.0544336E2,6.192578E1,2.1245801E2,1.0069531E2,1.2204053E2,1.3128906E1,3.2499298E2,0E0,7.9439804E1,7.4108916E3,2.356836E2,9.792383E2,9.137201E2,1.4993496E3,1.4055059E3,4.314248E2,1.7977456E3,8.852835E3,1.294718E2,8.88822E3,2.735987E2,1.8845664E3,8.983463E1,1.1000781E2,2.3943945E2,3.5524124E3,2.5326875E3,2.2619814E3,5.5539297E3,1.5655986E3,1.4209229E2,5.138594E2,4.0654736E2,8.995748E3,7.15625E0,6.9823916E3,3.3720698E3,1.7103994E3,2.1479297E2,1.8564355E2,4.045703E1,5.266211E1,0E0,3.706433E1,0E0,2.2169922E1,0E0,0E0,7.699707E1,0E0,0E0,0E0,9.73208E1,8.079346E1,1.6671875E1,0E0,9.762036E1,1.0214984E2,5.1363403E1,5.600965E1,6.1227753E1,5.4970695E1,3.0106934E1,2.999524E1,1.18245026E2,6.594388E1,1.6985443E2,1.7285493E2,3.4782883E1,0E0,6.615519E1,3.1540047E1,0E0,0E0,9.143994E1,7.430469E1,1.8280396E1,0E0,3.5410156E0,0E0,1.7754883E2,1.8963281E2,5.38593E1,2.9850714E1,1.5548157E1,0E0,1.596777E2,3.854629E2,4.684619E1,2.4152344E1,1.708429E1,3.239258E1,7.322266E1,1.4323242E1,1.4573059E0,1.0948779E2,0E0,3.458557E-1,4.5868085E2,2.5223688E2,3.1007446E1,5.5435085E1,5.820215E2,5.5487246E3,0E0,1.8523047E2,1.1649022E2,0E0,1.0888916E2,1.9780629E3,9.892363E2,2.3021973E1,6.1317383E1,4.5266406E2,6.606079E0,4.9220703E2,3.3444275E1,6.288467E2,1.1918848E2,8.795153E2,1.5365186E2,4.8207764E1,1.2629854E3,1.1754486E2,8.1992285E2,5.557422E1,1.5556445E2,9.487041E2,8.498624E1,1.0023196E2,2.1363281E1,1.0546875E0,1.3083398E2,0E0,4.8185608E1,2.1307788E2,2.0689492E3,5.1427344E2,2.6076953E2,3.0387822E3,1.6073652E3,9.879258E2,2.813274E2,4.8957285E3,8.800083E0,1.02311035E2,9.646838E1,1.8390625E2,2.7797168E2,0E0,9.148955E2,2.1958472E2,0E0,0E0,5.3939766E3,1.8681313E3,7.0182043E2,9.332119E2,1.7992773E3,0E0,0E0,1.988086E2,4.3584473E1,1.0199512E2,7.0560303E0,0E0,7.6352234E0,7.274414E0,0E0,1.5344299E1,1.1692383E1,3.646411E1,0E0,0E0,0E0,0E0,0E0,0E0,0E0,0E0,0E0,0E0,0E0,0E0,0E0,0E0,0E0,0E0,0E0,0E0,0E0,0E0,0E0,0E0,0E0,0E0,0E0,0E0,0E0,0E0,0E0,0E0,0E0,0E0,0E0,0E0,0E0,0E0,0E0,0E0,0E0,0E0,0E0,0E0,0E0,0E0,0E0,0E0,0E0,0E0,0E0,0E0,0E0,0E0,0E0,0E0,0E0,0E0,0E0,0E0,0E0,0E0,0E0,0E0,0E0,0E0,0E0,0E0,0E0,0E0,0E0,0E0,0E0,0E0,0E0,0E0,0E0,0E0,0E0,0E0,0E0,0E0,0E0,0E0,0E0,0E0,0E0,0E0,0E0,0E0,0E0,0E0,0E0,0E0,0E0,0E0,0E0,0E0,0E0,0E0,0E0,0E0,0E0,0E0,0E0,0E0,0E0,0E0,0E0,0E0,0E0,0E0,0E0,0E0,0E0,0E0,0E0,0E0,0E0,0E0,0E0,0E0,0E0,0E0,0E0,0E0,0E0,0E0,0E0,0E0,0E0,0E0,0E0,0E0,0E0,0E0,0E0,0E0,0E0,0E0,0E0,0E0,0E0,0E0,0E0,0E0,0E0,0E0,0E0,0E0,0E0,0E0,0E0,0E0,0E0,0E0,0E0,0E0,0E0,0E0,0E0,0E0,0E0,0E0,0E0,0E0,0E0,0E0,0E0,0E0,0E0,0E0,0E0,0E0,0E0,0E0,0E0,0E0,0E0,0E0,0E0,0E0,0E0,0E0,0E0,0E0,0E0,0E0,0E0,0E0,0E0,0E0,0E0,0E0,0E0,0E0,0E0,0E0,0E0,0E0,0E0,0E0,0E0,0E0,0E0,0E0,0E0,0E0],"parents":[2147483647,0,0,1,1,2,2,3,3,4,4,5,5,6,6,7,7,8,8,9,9,10,10,11,11,12,12,13,13,15,15,16,16,17,17,18,18,19,19,20,20,22,22,23,23,24,24,25,25,26,26,27,27,28,28,29,29,30,30,31,31,33,33,34,34,35,35,37,37,38,38,39,39,41,41,43,43,44,44,45,45,46,46,47,47,48,48,49,49,50,50,51,51,52,52,56,56,57,57,58,58,60,60,61,61,62,62,63,63,64,64,66,66,67,67,68,68,69,69,70,70,71,71,72,72,75,75,76,76,77,77,78,78,79,79,80,80,81,81,82,82,83,83,84,84,85,85,86,86,87,87,88,88,89,89,90,90,91,91,92,92,93,93,94,94,95,95,96,96,99,99,100,100,101,101,103,103,104,104,105,105,106,106,107,107,108,108,109,109,110,110,112,112,113,113,114,114,115,115,116,116,117,117,118,118,119,119,120,120,121,121,122,122,123,123,124,124,125,125,127,127,128,128,129,129,130,130,131,131,132,132,133,133,134,134,135,135,136,136,137,137,138,138,139,139,140,140,141,141,142,142,143,143,144,144,145,145,146,146,147,147,148,148,149,149,150,150,151,151,152,152,153,153,154,154,155,155,156,156,157,157,158,158,159,159,160,160,162,162,164,164,167,167,171,171,172,172,173,173,175,175,176,176,177,177,178,178,179,179,180,180,181,181,182,182,183,183,184,184,185,185,186,186,187,187,189,189,190,190,193,193,194,194,195,195,197,197,199,199,200,200,201,201,202,202,203,203,205,205,206,206,207,207,208,208,209,209,210,210,211,211,212,212,213,213,214,214,216,216,217,217,218,218,219,219,220,220,221,221,222,222,224,224,225,225,227,227,228,228,229,229,230,230,231,231,232,232,233,233,234,234,235,235,236,236,237,237,238,238,239,239,240,240,241,241,242,242,243,243,244,244,245,245,246,246,247,247,248,248,249,249,250,250,251,251,253,253,254,254,255,255,256,256,257,257,258,258,259,259,260,260,261,261,262,262,263,263,264,264,265,265,266,266,267,267,269,269,270,270,273,273,274,274,275,275,276,276,277,277,280,280,281,281,282,282,283,283,285,285,286,286,288,288,289,289,290,290],"right_children":[2,4,6,8,10,12,14,16,18,20,22,24,26,28,-1,30,32,34,36,38,40,-1,42,44,46,48,50,52,54,56,58,60,-1,62,64,66,-1,68,70,72,-1,74,-1,76,78,80,82,84,86,88,90,92,94,-1,-1,-1,96,98,100,-1,102,104,106,108,110,-1,112,114,116,118,120,122,124,-1,-1,126,128,130,132,134,136,138,140,142,144,146,148,150,152,154,156,158,160,162,164,166,168,-1,-1,170,172,174,-1,176,178,180,182,184,186,188,190,-1,192,194,196,198,200,202,204,206,208,210,212,214,216,218,-1,220,222,224,226,228,230,232,234,236,238,240,242,244,246,248,250,252,254,256,258,260,262,264,266,268,270,272,274,276,278,280,282,284,286,-1,288,-1,290,-1,-1,292,-1,-1,-1,294,296,298,-1,300,302,304,306,308,310,312,314,316,318,320,322,324,-1,326,328,-1,-1,330,332,334,-1,336,-1,338,340,342,344,346,-1,348,350,352,354,356,358,360,362,364,366,-1,368,370,372,374,376,378,380,-1,382,384,-1,386,388,390,392,394,396,398,400,402,404,406,408,410,412,414,416,418,420,422,424,426,428,430,432,434,-1,436,438,440,442,444,446,448,450,452,454,456,458,460,462,464,-1,466,468,-1,-1,470,472,474,476,478,-1,-1,480,482,484,486,-1,488,490,-1,492,494,496,-1,-1,-1,-1,-1,-1,-1,-1,-1,-1,-1,-1,-1,-1,-1,-1,-1,-1,-1,-1,-1,-1,-1,-1,-1,-1,-1,-1,-1,-1,-1,-1,-1,-1,-1,-1,-1,-1,-1,-1,-1,-1,-1,-1,-1,-1,-1,-1,-1,-1,-1,-1,-1,-1,-1,-1,-1,-1,-1,-1,-1,-1,-1,-1,-1,-1,-1,-1,-1,-1,-1,-1,-1,-1,-1,-1,-1,-1,-1,-1,-1,-1,-1,-1,-1,-1,-1,-1,-1,-1,-1,-1,-1,-1,-1,-1,-1,-1,-1,-1,-1,-1,-1,-1,-1,-1,-1,-1,-1,-1,-1,-1,-1,-1,-1,-1,-1,-1,-1,-1,-1,-1,-1,-1,-1,-1,-1,-1,-1,-1,-1,-1,-1,-1,-1,-1,-1,-1,-1,-1,-1,-1,-1,-1,-1,-1,-1,-1,-1,-1,-1,-1,-1,-1,-1,-1,-1,-1,-1,-1,-1,-1,-1,-1,-1,-1,-1,-1,-1,-1,-1,-1,-1,-1,-1,-1,-1,-1,-1,-1,-1,-1,-1,-1,-1,-1,-1,-1,-1,-1,-1,-1,-1,-1,-1,-1,-1,-1,-1,-1,-1,-1,-1,-1,-1,-1],"split_conditions":[-4.1733766E-1,-8.080859E-2,2.2081115E0,2.8412336E-1,7.066919E0,-2.8676933E-2,3.9737294E0,-2.8676933E-2,1.3556894E0,2.2081115E0,-1.941425E0,2.8412336E-1,5.5462513E-2,7.066919E0,4.471969E0,8.608401E-1,-2.997595E-1,5.5462513E-2,-2.8676933E-2,2.8412336E-1,3.9737294E0,3.0736325E0,2.8412336E-1,-8.080859E-2,5.5462513E-2,-2.997595E-1,2.8412336E-1,-2.8676933E-2,-2.8676933E-2,-2.997595E-1,1.4411398E0,5.5462513E-2,1.3197861E0,6.6299933E-1,-1.0269725E0,-2.997595E-1,1.2678487E0,5.5462513E-2,-1.6941826E0,2.8412336E-1,4.2725873E0,5.5462513E-2,3.2443936E0,5.5462513E-2,-2.997595E-1,1.3556894E0,1.3556894E0,-8.080859E-2,4.4249362E-1,-2.997595E-1,-8.080859E-2,2.8412336E-1,-8.080859E-2,4.351818E0,3.240135E0,1.2663435E0,5.5462513E-2,3.9737294E0,5.5462513E-2,1.3261588E0,2.2081115E0,2.8087038E-1,-8.714665E-2,4.0539154E-1,-1.826216E-1,1.2800643E0,-2.3787076E0,-2.997595E-1,-2.997595E-1,1.2516993E0,-2.8676933E-2,-2.8676933E-2,-2.8676933E-2,2.8768682E0,4.4718204E0,7.066919E0,-2.997595E-1,5.5462513E-2,5.5462513E-2,-8.080859E-2,-8.080859E-2,-8.080859E-2,-8.080859E-2,2.8412336E-1,2.8412336E-1,1.3556894E0,1.3556894E0,-8.080859E-2,8.608401E-1,-2.997595E-1,-2.997595E-1,-2.997595E-1,-8.193601E-1,5.5462513E-2,5.5462513E-2,-1.7652472E0,7.066919E0,4.111384E0,5.035698E0,-8.805208E-2,1.1239575E0,1.1052496E0,2.2268322E0,9.428757E-2,-8.171403E-2,-9.317656E-3,4.3215767E-1,2.339587E-1,-4.605994E-1,1.2047994E0,-7.2215515E-1,7.09728E-1,1.330775E0,2.3259382E-1,-4.605994E-1,1.6941118E0,-2.8676933E-2,-8.664493E-1,4.3215767E-1,-4.8408437E0,-3.4655123E0,-1.19502E-1,-2.997595E-1,-3.4655123E0,1.4411398E0,6.6299933E-1,3.6752038E0,1.8318762E-1,8.608401E-1,-4.8408437E0,-2.0842538E0,8.608401E-1,7.066919E0,8.608401E-1,-2.997595E-1,-2.997595E-1,-2.997595E-1,-1.0398208E0,-2.997595E-1,1.4411398E0,2.805403E-1,3.3312267E-1,4.4249362E-1,7.066919E0,1.3556894E0,2.8412336E-1,8.608401E-1,2.8412336E-1,8.608401E-1,-1.1252021E-1,-2.0842538E0,7.066919E0,1.4411398E0,-1.0398208E0,1.3556894E0,1.3556894E0,7.066919E0,-8.080859E-2,5.5462513E-2,1.1545609E0,-8.080859E-2,1.1421499E0,-2.997595E-1,2.4059126E0,-2.997595E-1,4.7314227E-1,1.803379E0,3.9737294E0,3.868478E0,3.5246488E-1,1.6954008E0,1.865079E0,-8.664493E-1,-1.7652472E0,1.6646758E0,-1.7652472E0,1.13641195E-1,-1.3442535E0,-8.0746746E-1,-4.605994E-1,1.6223887E0,4.3749073E-1,-1.2863574E0,1.5358105E-1,1.6239636E0,1.267722E0,7.716878E-1,2.2081115E0,1.1872859E0,1.2113395E0,-2.3828003E0,1.8276545E0,7.308693E-1,-1.6366075E0,1.6265558E0,2.805403E-1,1.7856165E0,1.1334657E-1,1.6421233E0,8.608401E-1,1.4411398E0,4.3215767E-1,-7.7186845E-2,1.599324E-1,1.1174202E-1,5.5462513E-2,8.608401E-1,6.6299933E-1,-2.9446653E-1,1.1080921E0,8.5759364E-2,5.5462513E-2,1.6943715E0,5.1061846E-2,-1.19502E-1,2.4385393E0,-4.8822224E-1,2.805403E-1,1.1239575E0,1.1239575E0,1.1067497E0,-1.0398208E0,1.4411398E0,-8.0345565E-1,7.066919E0,8.319987E-1,4.2142334E0,-3.6708086E0,1.4411398E0,8.608401E-1,4.3617716E-1,-1.1252021E-1,1.4411398E0,1.9229725E-1,8.608401E-1,-1.800202E-1,4.4249362E-1,7.066919E0,8.608401E-1,-1.2863574E0,2.467557E-1,-3.6708086E0,8.608401E-1,8.608401E-1,-1.826216E-1,7.066919E0,1.4411398E0,-2.9446653E-1,1.7579955E0,7.91903E-1,6.6299933E-1,-3.6708086E0,3.4628124E0,-6.946989E-1,-3.6708086E0,8.608401E-1,8.608401E-1,-8.080859E-2,1.4411398E0,8.608401E-1,8.608401E-1,-8.080859E-2,1.4411398E0,-8.443034E-2,-8.2619466E-2,-4.8820755E-1,7.066919E0,-1.1252021E-1,3.4901907E0,-8.080859E-2,-1.0398208E0,-2.236378E0,-1.9496406E0,8.608401E-1,1.4411398E0,-2.0842538E0,3.8913405E0,1.3556894E0,3.758172E0,1.2217859E0,5.5462513E-2,-1.1252021E-1,1.2373948E0,5.0654715E-1,7.047577E-1,-2.997595E-1,-1.7652472E0,2.3312266E0,2.3566422E0,2.8412336E-1,-7.8092285E-2,2.676129E0,4.1399302E0,3.2253466E0,1.690569E0,7.2280127E-1,2.3990767E0,3.144456E-1,1.9369446E0,4.7589973E-1,-1.1496475E0,3.5157105E-1,-6.08175E-1,-1.3899847E0,-9.380322E-1,1.2911173E-2,-1.0508033E0,-3.920636E-1,-1.47741E0,-6.7421925E-1,2.0032707E-1,-1.6805947E0,-5.564976E-3,-3.605269E-1,-1.0987644E0,6.7559564E-1,-6.291931E-1,9.865584E-1,-3.69524E-1,-3.1798285E-1,1.2335362E0,1.6890432E-1,8.4764236E-1,-5.344177E-1,7.888064E-1,2.7708235E-1,-2.3351413E-1,7.4876976E-1,-2.5120172E-1,1.4386717E0,2.156872E0,2.4529185E0,1.0885082E0,1.0317156E0,1.6278135E0,2.6908104E0,3.2782953E0,3.490191E0,2.8168073E0,2.0147824E0,2.4051383E0,1.2586899E-1,-1.7225641E0,-7.7698785E-1,4.758887E-1,1.5517418E0,8.904448E-2,-2.0682685E0,1.0596877E0,2.5544777E0,1.8844062E0,2.283289E0,1.5333635E0,1.6970862E0,1.9115227E0,2.3877807E0,9.786387E-1,2.9233236E0,4.1005325E0,2.6297326E0,3.4120924E0,2.6190374E0,5.983432E-1,8.135399E-1,1.6015492E-1,1.2169249E0,3.0430746E0,9.7624785E-1,1.88472E0,-3.418385E-1,1.6674411E-1,-9.3200856E-1,-2.1950746E-1,4.698249E-1,2.1382345E-1,2.6674509E-2,5.32788E-1,1.3236971E0,3.093898E0,-2.9604536E-1,2.2646716E0,3.0257828E0,3.9522808E0,6.9404894E-1,3.334134E0,-1.436851E0,8.657239E-1,-6.78048E-1,9.111166E-1,3.0098972E0,1.8802731E0,4.8271284E0,1.8864303E0,-1.1388123E0,-1.455083E0,-2.4464114E0,-8.185887E-1,-6.790654E-1,-8.189948E-1,-1.5168E0,-9.168344E-1,-1.7801353E-1,-4.267238E-1,-1.8488965E0,-1.1071725E0,2.0987146E0,3.1503947E0,3.3369422E-1,-5.766409E-1,-1.7714036E0,-5.516376E-1,-4.2738146E-1,-2.6655325E-1,-1.1621524E0,2.6004117E0,-4.6326676E-1,-1.7167312E-1,5.2238715E-1,-4.032409E-1,2.9467428E-1,9.475628E-1,2.8376281E0,3.8407824E0,1.2788079E0,2.5804346E0,-3.830091E-2,-3.625649E-1,1.5335268E-1,-6.704169E-1,-2.6054368E0,-1.3981605E0,-2.2852185E0,-2.4823658E0,4.083362E-1,2.0484374E0,-1.8135475E-1,-4.3474078E-1,-1.7096734E0,8.7739986E-1,-1.4012185E0,-2.184974E0,-2.5973773E0,-2.1831107E0,-4.9407688E-1,-1.0780916E0,-2.6318564E0,-8.0007917E-1,-9.156794E-1,-1.4714366E0,-2.2751021E0,-1.7264656E0,-3.286989E-1,-7.29129E-1,-2.342966E0,-5.206303E-1,4.2990234E-1,1.4521004E-1,9.052594E-1,5.6354314E-1,4.011032E-1,1.9589664E0,3.1006567E0,3.9475558E0,9.156986E-1,3.9914253E-1,-1.4533592E0,-8.087521E-1,-3.0350223E-1,5.402467E-1,-4.5833084E-1,-1.478007E0,-2.1361323E-1,8.4987247E-1,-1.8678236E0,4.7865853E-1,1.94051E0,-9.325516E-1,-8.5365766E-1,-2.7548528E-1,3.3244793E0,4.267605E0,3.3934476E0,2.0547035E0,3.3541849E0,1.614475E0,2.2818444E0,5.6302905E-1,9.1829956E-1,2.1216884E0,8.042124E-1,3.0102577E0,1.3041334E0,2.7049594E0,3.3212554E0,2.6758847E0,2.9998846E0,2.018209E0],"split_indices":[1,18,11,7,12,8,11,8,7,11,1,7,0,12,0,6,6,0,8,7,11,0,7,18,0,6,7,8,8,6,6,0,0,13,1,6,0,0,0,7,0,0,0,0,6,7,7,18,11,6,18,7,18,0,0,0,0,11,0,0,11,3,18,0,16,0,4,6,6,10,8,8,8,0,0,12,6,0,0,18,18,18,18,7,7,7,7,18,6,6,6,6,0,0,0,14,12,0,0,18,16,0,0,5,18,14,9,5,9,2,1,0,4,4,9,2,8,2,9,2,1,0,6,1,6,13,0,2,6,2,2,6,12,6,6,6,6,17,6,6,6,4,11,12,7,7,6,7,6,1,2,12,6,17,7,7,12,18,0,2,18,0,6,0,6,0,0,11,0,0,0,13,2,14,0,14,3,0,14,9,15,3,14,3,2,14,2,11,0,17,4,0,0,1,2,6,0,3,0,6,6,9,18,3,0,0,6,13,0,14,17,0,2,2,0,0,2,6,16,16,1,17,6,0,12,5,0,2,6,6,3,1,6,1,6,2,11,12,6,14,3,2,6,6,16,12,6,0,4,3,13,2,0,4,2,6,6,18,6,6,6,18,6,18,18,14,12,1,0,18,17,0,0,6,6,2,18,7,0,0,0,1,2,3,0,6,14,0,8,7,18,0,0,0,0,0,0,0,0,0,0,0,0,0,0,0,0,0,0,0,0,0,0,0,0,0,0,0,0,0,0,0,0,0,0,0,0,0,0,0,0,0,0,0,0,0,0,0,0,0,0,0,0,0,0,0,0,0,0,0,0,0,0,0,0,0,0,0,0,0,0,0,0,0,0,0,0,0,0,0,0,0,0,0,0,0,0,0,0,0,0,0,0,0,0,0,0,0,0,0,0,0,0,0,0,0,0,0,0,0,0,0,0,0,0,0,0,0,0,0,0,0,0,0,0,0,0,0,0,0,0,0,0,0,0,0,0,0,0,0,0,0,0,0,0,0,0,0,0,0,0,0,0,0,0,0,0,0,0,0,0,0,0,0,0,0,0,0,0,0,0,0,0,0,0,0,0,0,0,0,0,0,0,0,0,0,0,0,0,0,0,0,0,0,0,0,0,0,0,0,0,0,0,0,0,0,0],"split_type":[0,0,0,0,0,0,0,0,0,0,0,0,0,0,0,0,0,0,0,0,0,0,0,0,0,0,0,0,0,0,0,0,0,0,0,0,0,0,0,0,0,0,0,0,0,0,0,0,0,0,0,0,0,0,0,0,0,0,0,0,0,0,0,0,0,0,0,0,0,0,0,0,0,0,0,0,0,0,0,0,0,0,0,0,0,0,0,0,0,0,0,0,0,0,0,0,0,0,0,0,0,0,0,0,0,0,0,0,0,0,0,0,0,0,0,0,0,0,0,0,0,0,0,0,0,0,0,0,0,0,0,0,0,0,0,0,0,0,0,0,0,0,0,0,0,0,0,0,0,0,0,0,0,0,0,0,0,0,0,0,0,0,0,0,0,0,0,0,0,0,0,0,0,0,0,0,0,0,0,0,0,0,0,0,0,0,0,0,0,0,0,0,0,0,0,0,0,0,0,0,0,0,0,0,0,0,0,0,0,0,0,0,0,0,0,0,0,0,0,0,0,0,0,0,0,0,0,0,0,0,0,0,0,0,0,0,0,0,0,0,0,0,0,0,0,0,0,0,0,0,0,0,0,0,0,0,0,0,0,0,0,0,0,0,0,0,0,0,0,0,0,0,0,0,0,0,0,0,0,0,0,0,0,0,0,0,0,0,0,0,0,0,0,0,0,0,0,0,0,0,0,0,0,0,0,0,0,0,0,0,0,0,0,0,0,0,0,0,0,0,0,0,0,0,0,0,0,0,0,0,0,0,0,0,0,0,0,0,0,0,0,0,0,0,0,0,0,0,0,0,0,0,0,0,0,0,0,0,0,0,0,0,0,0,0,0,0,0,0,0,0,0,0,0,0,0,0,0,0,0,0,0,0,0,0,0,0,0,0,0,0,0,0,0,0,0,0,0,0,0,0,0,0,0,0,0,0,0,0,0,0,0,0,0,0,0,0,0,0,0,0,0,0,0,0,0,0,0,0,0,0,0,0,0,0,0,0,0,0,0,0,0,0,0,0,0,0,0,0,0,0,0,0,0,0,0,0,0,0,0,0,0,0,0,0,0,0,0,0,0,0,0,0,0,0,0,0,0,0,0,0,0,0,0,0,0,0,0,0,0,0,0,0,0,0,0,0],"sum_hessian":[3.6474E4,6.439E3,3.0035E4,2.703E3,3.736E3,2.9028E4,1.007E3,1.275E3,1.428E3,3.527E3,2.09E2,8.4E3,2.0628E4,8.28E2,1.79E2,6.46E2,6.29E2,1.131E3,2.97E2,2.948E3,5.79E2,4.7E1,1.62E2,3.221E3,5.179E3,1.0618E4,1.001E4,7.28E2,1E2,3.54E2,2.92E2,3.81E2,2.48E2,5.52E2,5.79E2,1.42E2,1.55E2,1.613E3,1.335E3,5.26E2,5.3E1,1.17E2,4.5E1,1.776E3,1.445E3,2.745E3,2.434E3,3.192E3,7.426E3,3.31E3,6.7E3,4.39E2,2.89E2,7.9E1,2.1E1,8.3E1,2.71E2,1.72E2,1.2E2,1.19E2,2.62E2,4.1E2,1.42E2,3.49E2,2.3E2,3.9E1,1.03E2,4.61E2,1.152E3,1.5E1,1.32E3,2.96E2,2.3E2,2E1,9.7E1,8.76E2,9E2,5.73E2,8.72E2,1.481E3,1.264E3,1.393E3,1.041E3,1.985E3,1.207E3,3.102E3,4.324E3,9.77E2,2.333E3,4.029E3,2.671E3,2.9E2,1.49E2,4.9E1,2.4E2,7.1E1,2E2,1.43E2,2.9E1,3.2E1,8.8E1,2.29E2,3.3E1,2.34E2,1.76E2,5.7E1,8.5E1,7.1E1,2.78E2,5.2E1,1.78E2,3E0,1E2,2.97E2,1.64E2,2.39E2,9.13E2,1E1,5E0,3.76E2,9.44E2,6.9E1,2.27E2,7.2E1,1.58E2,8.69E2,7E0,3.72E2,5.28E2,2.98E2,2.75E2,5.38E2,3.34E2,6.91E2,7.9E2,6.54E2,6.1E2,7.52E2,6.41E2,5.63E2,4.78E2,7.53E2,1.232E3,3.72E2,8.35E2,2.469E3,6.33E2,3.126E3,1.198E3,6.29E2,3.48E2,1.053E3,1.28E3,1.385E3,2.644E3,5.73E2,2.098E3,1.5E2,1.4E2,2.2E1,1.27E2,8E0,4.1E1,7.6E1,1.64E2,1E0,7E1,1.83E2,1.7E1,1E0,3.1E1,5.4E1,3.4E1,1.33E2,9.6E1,6.1E1,1.73E2,1.59E2,1.7E1,2.9E1,2.8E1,3.5E1,5E1,2.8E1,4.3E1,7.5E1,2.03E2,5.1E1,1E0,1.02E2,7.6E1,9.8E1,2E0,1.44E2,1.53E2,4.4E1,1.2E2,2.34E2,5E0,2.28E2,6.85E2,5E0,5E0,3E0,2E0,4E0,3.72E2,1.13E2,8.31E2,1.4E1,5.5E1,1.15E2,1.12E2,3E0,6.9E1,1.46E2,1.2E1,6.88E2,1.81E2,1.8E2,1.92E2,1.83E2,3.45E2,1E0,2.97E2,1.1E1,2.64E2,2.57E2,2.81E2,3.07E2,2.7E1,4.68E2,2.23E2,2.78E2,5.12E2,2.08E2,4.46E2,2.18E2,3.92E2,6.1E1,6.91E2,1.39E2,5.02E2,4.66E2,9.7E1,2.5E2,2.28E2,4.7E2,2.83E2,6.27E2,6.05E2,3.6E2,1.2E1,4.77E2,3.58E2,1.233E3,1.236E3,2.82E2,3.51E2,1.89E3,1.236E3,6.4E2,5.58E2,4.2E1,5.87E2,1.5E1,3.33E2,1.05E3,3E0,8.1E2,4.7E2,5.6E1,1.329E3,1.881E3,7.63E2,2.85E2,2.88E2,2.091E3,7E0,4E0,1.46E2,3.8E1,1.02E2,1.9E1,3E0,1.1E1,1.16E2,2.2E1,1.9E1,1.26E2,3.8E1,1.77E2,6E0,4.6E1,8E0,4E0,3E1,1E0,1.32E2,3E0,5.8E1,1E1,1.63E2,3.5E1,1.24E2,1E1,7E0,7E0,2.2E1,1.9E1,9E0,3.4E1,1E0,7E0,4.3E1,2E1,8E0,4E1,3E0,6.9E1,6E0,1.61E2,4.2E1,5E1,1E0,6.9E1,3.3E1,2E0,7.4E1,2.9E1,1.15E2,1.47E2,6E0,1.5E1,2.9E1,3.5E1,1.99E2,1.18E2,1.1E2,4.86E2,1.99E2,2E0,3E0,2E0,3E0,2E0,1E0,2E0,2E0,2.27E2,1.45E2,9.5E1,1.8E1,1.5E2,6.81E2,1.1E1,3E0,1.7E1,3.8E1,4.1E1,7.4E1,1.11E2,1E0,2E0,1E0,5E0,6.4E1,4E0,8E0,4.38E2,2.5E2,9.8E1,8.3E1,1.03E2,7.7E1,1.71E2,2.1E1,2.1E1,1.62E2,2.33E2,1.12E2,2.63E2,3.4E1,1E1,1E0,1E0,2.56E2,1.49E2,1.32E2,1.22E2,1.85E2,2.5E1,2E0,9.2E1,3.76E2,2.05E2,1.8E1,8.9E1,1.89E2,2.8E2,2.32E2,8.3E1,1.25E2,1.73E2,2.73E2,2.04E2,1.4E1,1.62E2,2.3E2,1.1E1,5E1,3.19E2,3.72E2,8E0,1.31E2,2.64E2,2.38E2,3.53E2,1.13E2,1.5E1,8.2E1,2.26E2,2.4E1,1.49E2,7.9E1,3.81E2,8.9E1,2.7E2,1.3E1,6.22E2,5E0,3.58E2,2.47E2,5E0,3.55E2,8.4E1,3.93E2,2E0,3.56E2,5.97E2,6.36E2,7.02E2,5.34E2,1.32E2,1.5E2,2.2E2,1.31E2,9.41E2,9.49E2,6.46E2,5.9E2,2.98E2,3.42E2,2.17E2,3.41E2,1.7E1,2.5E1,4.85E2,1.02E2,7E0,8E0,2.91E2,4.2E1,1.04E2,9.46E2,4.41E2,3.69E2,2.9E1,4.41E2,8.67E2,1.014E3,5.62E2,2.01E2,1.1E1,2.74E2,2.78E2,1E1,1.326E3,7.65E2,6.7E1,7.9E1,5E0,3.3E1,9.6E1,6E0,1.8E1,1E0,3E0,8E0,1E0,1.15E2,1.8E1,1E0,9E1,3.6E1,1.8E1,2E1],"tree_param":{"num_deleted":"0","num_feature":"19","num_nodes":"497","size_leaf_vector":"1"}},{"base_weights":[9.969351E-3,4.3406835E0,-9.185767E-1,5.855467E0,2.667662E0,-1.2279516E0,7.9919033E0,5.6021895E0,9.631676E0,1.3785608E-2,4.986953E0,7.5089353E-1,-2.0337615E0,7.44649E0,1.0459437E1,5.1958036E0,7.676734E0,1.070285E1,8.35908E0,-8.8428843E-1,3.4252152E0,4.748191E0,6.247759E0,2.7406726E0,-4.8690936E-1,-3.1040106E0,-8.983096E-1,7.115064E0,9.764933E0,2.3797746E0,1.0834539E1,4.479977E0,5.653836E0,7.084117E0,1.0872709E1,1.01576185E1,3.9915931E0,9.096676E0,2.1173408E0,-2.1105921E0,2.8645322E-1,3.9017444E0,2.9664404E0,-2.6742566E-1,4.8035846E0,7.2266307E0,5.6861744E0,8.097276E-1,5.1117296E0,-1.97921E0,1.1961889E0,-4.020169E0,-1.8730911E0,9.7797585E-1,-1.8252583E0,7.60469E0,6.3476486E0,7.2966337E0,1.02843075E1,1.1172034E1,8.743332E0,5.6376753E0,3.5229132E0,4.918335E0,6.0638585E0,8.240273E0,6.4176836E0,1.1737979E1,2.3771894E0,7.0880604E0,1.059525E1,1.9297688E0,2.9260137E0,-2.5554066E0,-1.8473215E0,2.3222615E-1,1.4076452E0,3.0188189E0,4.203814E0,8.9516133E-1,3.248577E-1,-1.6446605E0,2.3020756E0,4.7115655E0,2.2556338E0,1.8539662E0,7.390585E0,7.002351E0,5.372922E0,6.332597E-1,1.0728426E1,8.425945E0,2.9267678E0,-3.2036157E0,-5.432033E-1,-1.9671974E-1,3.0584908E0,-2.89024E0,-4.7196665E0,1.7384611E0,-3.1842403E0,3.8421237E0,-2.2258738E-1,-2.6456673E0,-5.8720666E-1,8.0880995E0,6.6161776E0,4.5403295E0,6.6962724E0,3.6586934E-1,7.539509E0,1.0355976E1,6.826218E-1,8.439746E0,1.1539074E1,2.8294473E0,1.4632664E0,8.63198E-1,6.1809745E0,3.8626473E0,9.0470386E-1,4.0968533E0,5.298947E0,7.7644534E0,5.6354938E0,8.428773E0,3.675862E0,4.730019E0,6.80405E0,8.355234E-1,3.5532963E0,7.327849E0,5.596533E-1,1.1132399E1,7.4538274E0,-2.6575017E0,6.828995E-1,-6.1994713E-2,-1.9048997E0,6.01526E-1,-3.2676944E-1,3.6203516E-1,3.1331248E0,4.4623075E0,3.156241E0,4.5266393E-1,-2.1109023E0,3.2296295E0,8.939362E-2,5.297896E0,4.472668E0,6.5083206E-1,1.3613176E-1,8.580022E0,6.2454166E0,7.2892537E0,2.086108E0,4.5352354E0,6.0796313E0,-5.886713E-1,1.8433357E0,1.3079712E0,1.1017293E1,7.3213263E0,9.592088E0,1.0343883E0,5.9627852E0,-3.9670055E0,-2.5317202E0,-2.476966E0,1.5307046E0,-2.6559684E-1,2.546147E0,9.2216957E-1,5.5675235E0,-4.7911916E-2,-4.24739E0,-5.5000076E0,-3.2469234E0,4.8746476E0,3.3710226E-1,-2.445059E0,-3.8256502E0,1.8903352E0,7.3544006E0,1.085102E0,-1.2983735E0,-4.582979E0,-1.629501E0,2.602431E0,-1.4591767E0,8.921667E0,7.1380515E0,5.376702E0,6.9744425E0,3.0760627E0,4.9217806E0,5.6450396E0,7.1462646E0,2.5074234E0,1.2709506E0,8.158694E-1,1.0418215E1,1.0706131E0,2.6408656E0,1.1712942E1,1.9632665E0,9.650698E0,5.8341823E0,3.051562E0,4.2441335E0,3.8809347E0,5.5594635E0,4.7065735E0,5.763168E0,7.0418625E0,9.281374E0,7.429562E0,4.994133E0,1.108041E0,8.566587E0,8.776736E-1,5.17924E0,2.587567E0,1.4535187E0,7.4213085E0,6.1101913E0,9.462044E-1,2.328196E0,1.2670031E1,9.810786E0,2.3266897E0,4.842848E-1,-2.3336098E0,-3.9513233E0,-9.1853476E-1,2.1136088E0,-1.5798888E0,2.2579165E0,-2.591882E0,-1.6973144E0,6.5675414E-1,-1.2853997E0,3.652913E-1,-6.464743E-1,9.862677E-1,4.4617084E-1,2.1669275E-1,4.5000286E0,3.684126E0,9.5856476E-1,-3.962127E0,-2.1639824E-1,1.2413933E0,7.5687796E-2,3.4460726E0,5.7930026E0,5.1162496E0,4.3791094E0,2.888081E0,8.963474E0,2.7761623E-1,6.3389196E0,7.775257E0,3.5957875E0,9.437428E-2,8.443743E-1,5.022268E0,2.903353E0,4.5684004E0,6.7265935E0,-1.4277138E0,-2.3457405E-1,5.153484E-1,2.8186243E0,3.4792404E0,1.7738883E0,-6.829374E-1,7.3611727E0,-1.9326496E-1,9.773343E0,1.983989E0,1.6193661E-1,5.0549583E0,8.793298E0,-3.2616284E0,-5.426179E0,-2.287376E0,-4.007997E0,-7.701066E-1,-3.2694864E0,5.111406E0,-4.6854293E-1,-8.889276E-1,4.774944E-1,-1.7550731E0,1.0811745E0,6.75655E0,3.3665495E0,1.354954E-1,-6.127457E-1,-3.5102727E0,-5.7177463E0,-5.810053E0,-4.868984E0,-5.674657E0,-2.016711E0,4.736128E0,2.5038798E0,-9.12671E-1,2.000207E0,-3.073032E0,-6.4117426E-1,-4.8998938E0,-2.9164782E0,3.1921965E-1,1.9766461E0,7.521676E0,2.4523914E0,1.053884E0,2.7048979E0,-2.7119389E0,1.1383566E0,-5.2574496E0,-4.550627E0,-2.847796E-1,-2.7545736E0,8.861921E-1,4.2918496E0,-1.743261E0,1.0910349E0,9.285572E-1,9.0591545E0,7.862183E0,5.471646E0,5.6294904E0,5.4618716E-1,4.5642357E0,7.16413E0,3.188324E0,2.5933915E-1,5.008074E0,2.5933915E-1,1.8313588E0,4.3008246E0,5.1460433E0,7.31198E0,1.0878573E1,7.925644E0,8.7795985E-1,3.530625E0,1.4282725E0,3.291641E0,1.8572721E0,1.425342E0,9.19704E-1,2.2266884E-1,1.3481004E0,1.1562644E0,1.3752915E0,1.0550729E0,1.3446478E0,2.3055747E0,1.5833045E0,1.0871229E0,1.7509018E0,6.651788E-1,2.5206852E0,6.7575353E-1,2.9359872E0,8.551177E-1,1.9332081E0,2.3573828E0,1.6176313E0,1.3207879E0,2.1106257E0,2.7078035E0,3.4204274E-1,1.3540078E-2,1.7759343E0,3.3256188E-1,8.590033E-1,2.2266884E-1,2.25548E0,3.7894136E-1,1.857664E0,9.300221E-1,4.842848E-1,3.9059145E0,1.2069474E0,3.0485494E0,-1.1409355E0,-6.1774325E-1,-1.4805663E0,-5.038742E-1,-4.2352583E-2,-3.3917886E-1,7.3405474E-1,1.6708317E-1,-3.452654E-1,1.5645403E0,-1.1692407E0,-5.0268114E-1,-4.647348E-1,-8.6732715E-1,1.1405349E-1,5.435323E-1,-4.621161E-1,2.5307834E-1,-7.35754E-2,-6.114048E-1,7.982568E-1,1.3919812E0,1.4117448E0,6.8820703E-1,4.9003888E-2,3.2548177E-1,-3.0162135E-1,-1.3349869E0,5.2783436E-1,-4.9325496E-1,-1.6546149E0,1.1217154E0,7.807564E-1,1.8469225E0,9.288693E-1,1.610427E0,1.5496248E0,1.2903696E0,1.070155E0,1.2761623E-1,1.7837421E0,3.052237E0,2.1028345E0,1.380504E0,9.2583245E-1,2.4224658E0,-5.5625726E-2,1.3762332E0,1.0447562E0,1.5938629E0,1.0975553E0,2.3498134E-1,9.3042374E-1,1.6018895E0,1.7628345E0,2.4340343E0,1.0038359E-1,-5.036182E-1,-1.1500895E-1,4.955983E-1,1.7640415E-1,-3.4282503E-1,1.9371797E0,3.0212677E-1,2.1214862E0,2.800473E0,4.2652205E-1,-6.846551E-1,1.06702045E-1,2.9526122E0,9.0585124E-1,4.9648398E-1,-4.7598994E-1,6.39837E-1,2.287683E0,5.8072793E-1,1.0195855E0,2.8812194E0,-8.549877E-1,-1.064024E0,-1.7160506E0,-5.8593726E-1,-8.0673784E-1,-1.3288194E-1,-1.0570152E0,-1.4878896E0,-3.735126E-1,-1.4680614E-1,-1.2974155E0,-7.76233E-1,1.4721713E0,2.268284E0,-3.7795818E-1,5.404174E-1,-5.688736E-1,-2.3921761E-1,1.5798489E0,-2.283249E-1,-7.049365E-1,5.7790387E-1,4.4879916E-1,1.21451356E-1,1.938781E0,2.879457E0,2.9028097E-1,1.8159808E0,-6.866535E-2,1.4350344E-1,-4.0072322E-1,-6.853363E-2,-7.993808E-1,-1.3009775E0,-1.2064902E0,-1.8729845E0,-1.6675946E0,-1.8645284E0,-9.8536247E-1,-1.9097904E0,-1.8635864E0,-1.5342025E0,-2.6691884E-1,-9.370813E-1,1.8133831E-1,1.4377377E0,-1.7459515E-1,-3.6357895E-1,-9.8380774E-2,6.5944207E-1,-5.7410395E-1,-1.694067E0,-1.3717951E-1,-8.70083E-1,-1.694512E0,-1.1013508E0,-5.873433E-1,-1.1722261E0,1.2790511E0,-2.0347562E-1,1.9144467E-1,6.230364E-1,2.5003402E0,1.9871672E0,1.572163E-1,1.3844328E0,-2.3238139E-1,3.549454E-1,-1.0183377E0,-5.6678224E-1,3.245306E-1,2.8816466E0,-1.2757025E0,-1.7889814E0,-1.3660927E0,-5.0975686E-1,-3.2099023E-1,5.179535E-1,-1.8201051E0,1.917029E-2,1.1465441E0,1.0529772E-1,1.3604436E0,-6.782192E-1,-7.474274E-1,-1.9294736E-1,1.9079185E0,1.7001069E-1,2.2576497E0,2.9458244E0,2.5710595E0,1.9150052E0,1.4194593E0,2.5187252E0,1.9670449E-1,1.7269483E0,7.116823E-1,1.5269063E0,2.163395E0,3.5267374E-1,9.918812E-1,2.836367E-1,9.5654494E-1,1.5772195E0,1.0561793E0,1.6743776E0,1.7414076E0,7.608234E-1,9.2386985E-1,2.213222E0,3.4411042E0,2.4542274E0,2.5056865E0,9.878258E-1],"categories":[],"categories_nodes":[],"categories_segments":[],"categories_sizes":[],"default_left":[0,0,0,0,0,0,0,0,0,0,0,0,0,0,0,0,0,0,0,0,0,0,0,0,0,0,0,0,0,0,0,0,0,0,0,0,0,0,0,0,0,0,0,0,0,0,0,0,0,0,0,0,0,0,0,0,0,0,0,0,0,0,0,0,0,0,0,0,0,0,0,0,0,0,0,0,0,0,0,0,0,0,0,0,0,0,0,0,0,0,0,0,0,0,0,0,0,0,0,0,0,0,0,0,0,0,0,0,0,0,0,0,0,0,0,0,0,0,0,0,0,0,0,0,0,0,0,0,0,0,0,0,0,0,0,0,0,0,0,0,0,0,0,0,0,0,0,0,0,0,0,0,0,0,0,0,0,0,0,0,0,0,0,0,0,0,0,0,0,0,0,0,0,0,0,0,0,0,0,0,0,0,0,0,0,0,0,0,0,0,0,0,0,0,0,0,0,0,0,0,0,0,0,0,0,0,0,0,0,0,0,0,0,0,0,0,0,0,0,0,0,0,0,0,0,0,0,0,0,0,0,0,0,0,0,0,0,0,0,0,0,0,0,0,0,0,0,0,0,0,0,0,0,0,0,0,0,0,0,0,0,0,0,0,0,0,0,0,0,0,0,0,0,0,0,0,0,0,0,0,0,0,0,0,0,0,0,0,0,0,0,0,0,0,0,0,0,0,0,0,0,0,0,0,0,0,0,0,0,0,0,0,0,0,0,0,0,0,0,0,0,0,0,0,0,0,0,0,0,0,0,0,0,0,0,0,0,0,0,0,0,0,0,0,0,0,0,0,0,0,0,0,0,0,0,0,0,0,0,0,0,0,0,0,0,0,0,0,0,0,0,0,0,0,0,0,0,0,0,0,0,0,0,0,0,0,0,0,0,0,0,0,0,0,0,0,0,0,0,0,0,0,0,0,0,0,0,0,0,0,0,0,0,0,0,0,0,0,0,0,0,0,0,0,0,0,0,0,0,0,0,0,0,0,0,0,0,0,0,0,0,0,0,0,0,0,0,0,0,0,0,0,0,0,0,0,0,0,0,0,0,0,0,0,0,0,0,0,0,0,0,0,0,0,0,0,0,0,0,0,0,0,0,0,0,0,0,0,0,0,0,0,0,0,0,0,0,0,0,0,0,0,0,0,0,0,0,0,0,0,0,0,0,0,0,0,0,0,0,0,0,0,0,0,0,0,0,0,0,0,0,0,0,0,0,0,0,0,0,0,0,0,0,0,0,0,0,0,0,0,0,0,0,0,0,0,0,0,0,0,0,0,0,0,0,0,0,0,0,0,0,0,0,0,0,0,0,0,0,0,0,0,0],"id":2,"left_children":[1,3,5,7,9,11,13,15,17,19,21,23,25,27,29,31,33,35,37,39,41,43,45,47,49,51,53,55,57,-1,59,61,63,65,67,69,-1,71,-1,73,75,77,79,81,83,85,87,89,91,93,95,97,99,101,103,105,107,109,111,113,115,117,119,121,123,125,127,129,-1,131,133,-1,-1,135,137,139,-1,141,143,-1,-1,145,147,149,-1,151,153,155,157,159,161,163,165,167,169,171,173,175,177,179,181,183,185,187,189,191,193,195,197,-1,199,201,-1,203,205,-1,-1,-1,207,209,-1,211,213,215,217,219,221,223,225,-1,-1,227,-1,229,231,233,235,237,239,241,243,-1,245,247,249,-1,251,253,-1,255,257,-1,-1,259,261,263,265,267,269,271,273,-1,275,277,279,281,283,285,287,289,291,293,-1,295,297,299,301,303,305,307,309,311,313,315,317,319,321,323,325,327,329,331,333,335,337,339,341,343,345,-1,-1,-1,347,-1,-1,349,-1,351,353,355,357,359,361,363,365,367,369,371,373,-1,375,377,379,381,-1,383,385,-1,-1,387,389,-1,-1,391,393,395,397,-1,399,401,403,405,-1,407,409,-1,-1,-1,411,413,415,417,419,-1,-1,421,423,425,427,429,431,-1,433,435,437,-1,-1,439,441,443,445,447,449,451,453,-1,-1,-1,455,457,459,461,463,465,467,469,471,473,475,477,479,481,483,485,487,489,491,493,495,497,499,501,503,505,507,509,511,513,-1,515,517,519,521,523,525,527,529,531,533,535,-1,537,539,541,543,545,547,549,551,553,555,-1,557,559,561,563,-1,565,567,569,-1,571,-1,-1,573,575,577,579,581,-1,-1,-1,-1,-1,-1,-1,-1,-1,-1,-1,-1,-1,-1,-1,-1,-1,-1,-1,-1,-1,-1,-1,-1,-1,-1,-1,-1,-1,-1,-1,-1,-1,-1,-1,-1,-1,-1,-1,-1,-1,-1,-1,-1,-1,-1,-1,-1,-1,-1,-1,-1,-1,-1,-1,-1,-1,-1,-1,-1,-1,-1,-1,-1,-1,-1,-1,-1,-1,-1,-1,-1,-1,-1,-1,-1,-1,-1,-1,-1,-1,-1,-1,-1,-1,-1,-1,-1,-1,-1,-1,-1,-1,-1,-1,-1,-1,-1,-1,-1,-1,-1,-1,-1,-1,-1,-1,-1,-1,-1,-1,-1,-1,-1,-1,-1,-1,-1,-1,-1,-1,-1,-1,-1,-1,-1,-1,-1,-1,-1,-1,-1,-1,-1,-1,-1,-1,-1,-1,-1,-1,-1,-1,-1,-1,-1,-1,-1,-1,-1,-1,-1,-1,-1,-1,-1,-1,-1,-1,-1,-1,-1,-1,-1,-1,-1,-1,-1,-1,-1,-1,-1,-1,-1,-1,-1,-1,-1,-1,-1,-1,-1,-1,-1,-1,-1,-1,-1,-1,-1,-1,-1,-1,-1,-1,-1,-1,-1,-1,-1,-1,-1,-1,-1,-1,-1,-1,-1,-1,-1,-1,-1,-1,-1,-1,-1,-1,-1,-1,-1,-1,-1,-1,-1,-1,-1,-1,-1,-1,-1,-1,-1,-1,-1],"loss_changes":[1.4667972E5,1.6305055E4,8.280944E4,3.1778047E3,1.8846883E4,4.6290387E4,1.2786992E3,2.631789E3,1.9816211E2,4.38108E3,4.6222266E2,2.0692613E4,2.5065906E4,5.6751953E2,8.466406E1,8.445156E2,9.0216797E2,2.235254E1,3.2739258E1,1.6257996E3,5.3574463E1,3.8413867E2,1.0018652E2,1.4747404E4,1.3012915E4,1.1967695E4,1.7413121E4,2.2564844E2,5.44375E1,0E0,1.10078125E1,1.1324512E3,4.5691406E2,2.8536914E2,1.0855469E2,5.386133E1,0E0,4.398242E1,0E0,6.0039307E1,1.3747699E2,2.5448242E1,1.890625E0,6.0407036E1,3.0511914E2,6.557617E1,3.1642578E1,3.1035452E3,1.0446457E4,4.8264277E3,6.317032E3,4.797414E3,2.1470578E4,1.1386029E4,6.804709E3,1.5674219E2,1.5231836E2,2.1800537E1,2.292871E1,3.1982422E1,2.3164429E1,6.8557227E2,8.692139E1,1.605752E2,7.0802734E2,1.0409863E2,1.5234863E2,2.3184082E1,0E0,5.11438E0,5.538867E1,0E0,0E0,6.8929565E1,3.596338E1,1.1869141E2,0E0,4.5040894E0,1.4078125E1,0E0,0E0,1.935854E1,1.0191084E1,1.6133984E2,0E0,7.82465E-1,6.491699E1,2.5697876E1,5.5307373E1,2.584251E3,8.995117E0,6.6916797E2,5.009477E3,7.5010156E2,5.0770054E3,8.36034E2,5.58009E3,8.987691E3,4.301E3,5.3074233E3,1.5675625E3,6.690504E3,3.284866E3,7.9261113E3,7.4353467E3,1.6676953E2,2.9109863E1,1.2787598E1,7.3663086E1,0E0,1.8665894E1,9.689453E0,0E0,2.1933594E0,1.9745117E1,0E0,0E0,0E0,4.1417578E2,9.194141E1,0E0,3.811133E1,8.149707E1,1.5934473E2,9.156289E2,6.624805E1,2.9108192E1,1.265625E0,5.230371E1,0E0,0E0,8.131714E-1,0E0,1.3883789E1,1.3916199E1,7.333374E1,1.7979733E1,1.5677304E2,4.408728E1,9.6183846E1,5.0903595E1,0E0,4.51532E0,8.176758E0,2.4311447E1,0E0,3.4214127E1,9.773853E0,0E0,3.2568945E2,3.4496094E1,0E0,0E0,6.141626E1,1.8010986E1,2.0507812E1,2.9861164E0,3.94635E1,4.064331E1,2.581444E2,1.1357073E3,0E0,1.7305176E1,1.3110742E2,4.9141406E2,4.4622992E2,8.163711E2,6.945547E2,2.761621E2,8.8351465E2,4.376366E3,6.414816E2,0E0,2.4198926E2,1.2308047E3,7.819339E1,1.6891211E3,4.5201562E2,3.8831191E3,1.398418E2,1.7394546E3,1.7515889E3,1.7232109E3,8.4799805E1,2.6772852E2,2.5146411E2,4.415462E3,6.3183594E0,4.0008608E3,1.6604785E3,1.5225752E3,9.2921875E1,1.2712549E2,2.3910522E1,1.8963379E1,4.7141266E-1,8.975159E0,2.1304688E1,1.7064453E1,0E0,0E0,0E0,4.4296875E0,0E0,0E0,1.7535156E1,0E0,1.6745557E2,1.0889844E2,1.3760986E0,4.864258E0,2.6892822E1,1.5936096E1,9.15708E1,4.336133E1,9.127949E2,1.7680762E2,4.055664E1,1.2056152E2,0E0,3.85E1,8.226044E-1,8.510284E0,4.192543E-1,0E0,5.9765137E1,8.703125E0,0E0,0E0,8.723096E1,4.241748E1,0E0,0E0,5.67016E1,7.6647095E1,4.9977994E-1,7.1221733E-1,0E0,9.672711E1,8.558307E1,4.222711E1,1.0888278E2,0E0,6.783836E1,8.7156166E1,0E0,0E0,0E0,8.239258E0,1.6189545E1,4.2575026E-1,2.737877E0,1.9819353E1,0E0,0E0,2.3591443E2,3.271709E2,4.137378E1,2.8731445E1,5.172249E0,7.467993E1,0E0,2.2493774E1,7.3951416E0,1.9598892E1,0E0,0E0,4.3184814E0,2.5952576E1,1.1724304E1,1.0119385E1,1.14692505E2,1.7270291E2,4.5613396E1,3.3288093E3,0E0,0E0,0E0,1.04293945E2,2.3486355E1,1.7182812E2,8.291077E1,9.752052E2,2.0379419E3,3.1726562E2,4.494043E1,2.175415E2,5.0343115E2,3.37157E1,2.7258675E1,3.1052148E2,7.242285E1,7.081914E2,6.791864E1,3.7524863E3,7.458717E1,1.4893274E2,1.9691016E2,1.0898431E3,7.131812E1,5.1096825E1,7.2427344E2,4.4285938E2,1.3255469E2,1.9121777E3,1.0017383E2,1.0787583E3,8.112305E1,0E0,4.6598053E1,1.661543E2,3.414835E3,1.6527719E2,7.278789E2,9.1003516E2,1.3665831E2,7.869629E1,1.9070703E2,5.1789078E1,2.4933447E2,0E0,4.4895166E2,2.1528296E2,1.5079468E1,3.6953125E0,1.9064122E3,1.3444279E4,4.4800568E2,4.7034912E2,1.5531523E3,5.792936E2,0E0,9.750293E1,4.5808594E1,5.982727E1,1.8334717E1,0E0,5.9532166E-1,2.062793E1,4.8538208E-2,0E0,2.2705078E-2,0E0,0E0,3.328308E0,1.2783661E1,1.8817871E1,8.339844E0,4.123657E0,0E0,0E0,0E0,0E0,0E0,0E0,0E0,0E0,0E0,0E0,0E0,0E0,0E0,0E0,0E0,0E0,0E0,0E0,0E0,0E0,0E0,0E0,0E0,0E0,0E0,0E0,0E0,0E0,0E0,0E0,0E0,0E0,0E0,0E0,0E0,0E0,0E0,0E0,0E0,0E0,0E0,0E0,0E0,0E0,0E0,0E0,0E0,0E0,0E0,0E0,0E0,0E0,0E0,0E0,0E0,0E0,0E0,0E0,0E0,0E0,0E0,0E0,0E0,0E0,0E0,0E0,0E0,0E0,0E0,0E0,0E0,0E0,0E0,0E0,0E0,0E0,0E0,0E0,0E0,0E0,0E0,0E0,0E0,0E0,0E0,0E0,0E0,0E0,0E0,0E0,0E0,0E0,0E0,0E0,0E0,0E0,0E0,0E0,0E0,0E0,0E0,0E0,0E0,0E0,0E0,0E0,0E0,0E0,0E0,0E0,0E0,0E0,0E0,0E0,0E0,0E0,0E0,0E0,0E0,0E0,0E0,0E0,0E0,0E0,0E0,0E0,0E0,0E0,0E0,0E0,0E0,0E0,0E0,0E0,0E0,0E0,0E0,0E0,0E0,0E0,0E0,0E0,0E0,0E0,0E0,0E0,0E0,0E0,0E0,0E0,0E0,0E0,0E0,0E0,0E0,0E0,0E0,0E0,0E0,0E0,0E0,0E0,0E0,0E0,0E0,0E0,0E0,0E0,0E0,0E0,0E0,0E0,0E0,0E0,0E0,0E0,0E0,0E0,0E0,0E0,0E0,0E0,0E0,0E0,0E0,0E0,0E0,0E0,0E0,0E0,0E0,0E0,0E0,0E0,0E0,0E0,0E0,0E0,0E0,0E0,0E0,0E0,0E0,0E0,0E0,0E0,0E0,0E0,0E0,0E0,0E0,0E0,0E0,0E0,0E0,0E0,0E0,0E0,0E0,0E0,0E0,0E0,0E0,0E0,0E0,0E0,0E0,0E0,0E0,0E0,0E0,0E0,0E0,0E0],"parents":[2147483647,0,0,1,1,2,2,3,3,4,4,5,5,6,6,7,7,8,8,9,9,10,10,11,11,12,12,13,13,14,14,15,15,16,16,17,17,18,18,19,19,20,20,21,21,22,22,23,23,24,24,25,25,26,26,27,27,28,28,30,30,31,31,32,32,33,33,34,34,35,35,37,37,39,39,40,40,41,41,42,42,43,43,44,44,45,45,46,46,47,47,48,48,49,49,50,50,51,51,52,52,53,53,54,54,55,55,56,56,57,57,58,58,59,59,60,60,61,61,62,62,63,63,64,64,65,65,66,66,67,67,69,69,70,70,73,73,74,74,75,75,77,77,78,78,81,81,82,82,83,83,85,85,86,86,87,87,88,88,89,89,90,90,91,91,92,92,93,93,94,94,95,95,96,96,97,97,98,98,99,99,100,100,101,101,102,102,103,103,104,104,105,105,106,106,107,107,108,108,110,110,111,111,113,113,114,114,118,118,119,119,121,121,122,122,123,123,124,124,125,125,126,126,127,127,128,128,131,131,133,133,134,134,135,135,136,136,137,137,138,138,139,139,140,140,142,142,143,143,144,144,146,146,147,147,149,149,150,150,153,153,154,154,155,155,156,156,157,157,158,158,159,159,160,160,162,162,163,163,164,164,165,165,166,166,167,167,168,168,169,169,170,170,171,171,173,173,174,174,175,175,176,176,177,177,178,178,179,179,180,180,181,181,182,182,183,183,184,184,185,185,186,186,187,187,188,188,189,189,190,190,191,191,192,192,193,193,194,194,195,195,196,196,197,197,198,198,202,202,205,205,207,207,208,208,209,209,210,210,211,211,212,212,213,213,214,214,215,215,216,216,217,217,218,218,220,220,221,221,222,222,223,223,225,225,226,226,229,229,230,230,233,233,234,234,235,235,236,236,238,238,239,239,240,240,241,241,243,243,244,244,248,248,249,249,250,250,251,251,252,252,255,255,256,256,257,257,258,258,259,259,260,260,262,262,263,263,264,264,267,267,268,268,269,269,270,270,271,271,272,272,273,273,274,274,278,278,279,279,280,280,281,281,282,282,283,283,284,284,285,285,286,286,287,287,288,288,289,289,290,290,291,291,292,292,293,293,294,294,295,295,296,296,297,297,298,298,299,299,300,300,301,301,302,302,303,303,304,304,305,305,306,306,307,307,309,309,310,310,311,311,312,312,313,313,314,314,315,315,316,316,317,317,318,318,319,319,321,321,322,322,323,323,324,324,325,325,326,326,327,327,328,328,329,329,330,330,332,332,333,333,334,334,335,335,337,337,338,338,339,339,341,341,344,344,345,345,346,346,347,347,348,348],"right_children":[2,4,6,8,10,12,14,16,18,20,22,24,26,28,30,32,34,36,38,40,42,44,46,48,50,52,54,56,58,-1,60,62,64,66,68,70,-1,72,-1,74,76,78,80,82,84,86,88,90,92,94,96,98,100,102,104,106,108,110,112,114,116,118,120,122,124,126,128,130,-1,132,134,-1,-1,136,138,140,-1,142,144,-1,-1,146,148,150,-1,152,154,156,158,160,162,164,166,168,170,172,174,176,178,180,182,184,186,188,190,192,194,196,198,-1,200,202,-1,204,206,-1,-1,-1,208,210,-1,212,214,216,218,220,222,224,226,-1,-1,228,-1,230,232,234,236,238,240,242,244,-1,246,248,250,-1,252,254,-1,256,258,-1,-1,260,262,264,266,268,270,272,274,-1,276,278,280,282,284,286,288,290,292,294,-1,296,298,300,302,304,306,308,310,312,314,316,318,320,322,324,326,328,330,332,334,336,338,340,342,344,346,-1,-1,-1,348,-1,-1,350,-1,352,354,356,358,360,362,364,366,368,370,372,374,-1,376,378,380,382,-1,384,386,-1,-1,388,390,-1,-1,392,394,396,398,-1,400,402,404,406,-1,408,410,-1,-1,-1,412,414,416,418,420,-1,-1,422,424,426,428,430,432,-1,434,436,438,-1,-1,440,442,444,446,448,450,452,454,-1,-1,-1,456,458,460,462,464,466,468,470,472,474,476,478,480,482,484,486,488,490,492,494,496,498,500,502,504,506,508,510,512,514,-1,516,518,520,522,524,526,528,530,532,534,536,-1,538,540,542,544,546,548,550,552,554,556,-1,558,560,562,564,-1,566,568,570,-1,572,-1,-1,574,576,578,580,582,-1,-1,-1,-1,-1,-1,-1,-1,-1,-1,-1,-1,-1,-1,-1,-1,-1,-1,-1,-1,-1,-1,-1,-1,-1,-1,-1,-1,-1,-1,-1,-1,-1,-1,-1,-1,-1,-1,-1,-1,-1,-1,-1,-1,-1,-1,-1,-1,-1,-1,-1,-1,-1,-1,-1,-1,-1,-1,-1,-1,-1,-1,-1,-1,-1,-1,-1,-1,-1,-1,-1,-1,-1,-1,-1,-1,-1,-1,-1,-1,-1,-1,-1,-1,-1,-1,-1,-1,-1,-1,-1,-1,-1,-1,-1,-1,-1,-1,-1,-1,-1,-1,-1,-1,-1,-1,-1,-1,-1,-1,-1,-1,-1,-1,-1,-1,-1,-1,-1,-1,-1,-1,-1,-1,-1,-1,-1,-1,-1,-1,-1,-1,-1,-1,-1,-1,-1,-1,-1,-1,-1,-1,-1,-1,-1,-1,-1,-1,-1,-1,-1,-1,-1,-1,-1,-1,-1,-1,-1,-1,-1,-1,-1,-1,-1,-1,-1,-1,-1,-1,-1,-1,-1,-1,-1,-1,-1,-1,-1,-1,-1,-1,-1,-1,-1,-1,-1,-1,-1,-1,-1,-1,-1,-1,-1,-1,-1,-1,-1,-1,-1,-1,-1,-1,-1,-1,-1,-1,-1,-1,-1,-1,-1,-1,-1,-1,-1,-1,-1,-1,-1,-1,-1,-1,-1,-1,-1,-1,-1,-1,-1,-1,-1,-1],"split_conditions":[-4.1733766E-1,2.8412336E-1,2.2081115E0,7.066919E0,-8.080859E-2,-2.8676933E-2,3.9737294E0,2.2081115E0,-2.8676933E-2,1.3556894E0,2.2081115E0,2.8412336E-1,5.5462513E-2,7.066919E0,5.5462513E-2,-8.080859E-2,3.9737294E0,3.9737294E0,-2.997595E-1,5.5462513E-2,-2.8676933E-2,-1.6941826E0,-2.8676933E-2,-8.080859E-2,5.5462513E-2,-8.080859E-2,2.8412336E-1,-2.8676933E-2,5.5462513E-2,2.3797746E0,1.3556894E0,-2.8676933E-2,2.3042703E-1,-2.8676933E-2,-2.8676933E-2,-8.193601E-1,3.9915931E0,-4.69431E-1,2.1173408E0,4.4249362E-1,2.2081115E0,-2.997595E-1,6.619972E-1,1.2516993E0,7.066919E0,-3.4655123E0,-3.4655123E0,7.066919E0,-2.997595E-1,1.3556894E0,1.3556894E0,2.8412336E-1,-2.997595E-1,-2.997595E-1,-8.080859E-2,2.8412336E-1,-8.080859E-2,-6.102091E-1,1.6239636E0,-8.080859E-2,-2.8676933E-2,-2.997595E-1,-2.997595E-1,-2.8676933E-2,-2.8676933E-2,1.2071313E0,-8.080859E-2,-2.3828003E0,2.3771894E0,1.2074504E0,1.267722E0,1.9297688E0,2.9260137E0,6.896646E-1,-1.6941826E0,-1.0269725E0,1.4076452E0,-8.637318E-1,1.3249147E0,8.9516133E-1,3.248577E-1,-4.605994E-1,4.3215767E-1,-2.8676933E-2,2.2556338E0,5.1061846E-2,4.3215767E-1,1.2073888E0,-1.3317901E0,5.5462513E-2,-1.3442535E0,5.5462513E-2,5.5462513E-2,-8.080859E-2,-8.080859E-2,7.066919E0,-8.080859E-2,-2.997595E-1,1.3556894E0,2.8412336E-1,2.8412336E-1,-8.080859E-2,8.608401E-1,-2.997595E-1,-2.997595E-1,-2.997595E-1,-1.19502E-1,2.3042703E-1,5.5462513E-2,3.6586934E-1,7.6104206E-1,-2.374615E0,6.826218E-1,2.3042703E-1,1.2074693E0,2.8294473E0,1.4632664E0,8.63198E-1,-1.941425E0,5.5462513E-2,9.0470386E-1,1.2940761E0,1.6274716E-1,1.4411398E0,-2.997595E-1,-2.997595E-1,-8.533577E-2,-9.9432456E-1,-2.997595E-1,8.355234E-1,3.5532963E0,-4.976989E-1,5.596533E-1,2.8043723E-1,1.6301432E0,3.583645E-1,-1.3317901E0,-8.624121E-2,-1.826216E-1,1.6943715E0,8.5759364E-2,3.6203516E-1,1.2071984E0,-2.3787076E0,1.267722E0,4.5266393E-1,-8.664493E-1,1.599324E-1,8.939362E-2,5.5462513E-2,-3.4655123E0,6.5083206E-1,1.3613176E-1,-1.19502E-1,-1.3442535E0,3.2361263E-1,-1.3442535E0,1.2113395E0,2.3042703E-1,4.4249362E-1,-2.997595E-1,1.3079712E0,1.6301432E0,-4.8408437E0,-4.8408437E0,8.608401E-1,1.4411398E0,8.608401E-1,1.4411398E0,-2.997595E-1,-2.997595E-1,-8.080859E-2,2.546147E0,-1.0398208E0,8.608401E-1,3.4272513E-1,6.6299933E-1,8.608401E-1,-2.997595E-1,7.066919E0,1.3556894E0,1.4411398E0,1.3556894E0,-1.0398208E0,3.8913405E0,7.066919E0,1.4411398E0,-1.0398208E0,8.608401E-1,1.3556894E0,2.3566422E0,-8.080859E-2,1.3249147E0,1.2046623E0,-8.171403E-2,2.805403E-1,6.5914005E-1,2.8412336E-1,-1.1252021E-1,2.5074234E0,1.2709506E0,8.158694E-1,2.8412336E-1,1.0706131E0,2.6408656E0,-2.374615E0,1.9632665E0,2.4233723E-1,1.4411398E0,7.91903E-1,1.1052496E0,8.5759364E-2,5.5462513E-2,-4.864444E-1,8.352164E-1,8.608401E-1,4.403249E-1,2.42843E-1,8.608401E-1,1.108041E0,1.1122066E-1,-1.3317901E0,1.6301432E0,-1.3317901E0,1.4535187E0,6.594827E-1,1.6932354E0,9.462044E-1,2.328196E0,-4.8820755E-1,2.912359E-1,2.3266897E0,4.842848E-1,-7.378468E-1,-1.0269725E0,-6.4439553E-1,6.740415E-1,-1.5798888E0,-4.100952E-1,-9.9432456E-1,-1.19502E-1,8.028329E-1,-1.2853997E0,-5.752685E-1,6.4439064E-1,9.862677E-1,4.4617084E-1,2.1669275E-1,2.3042703E-1,1.8981431E-1,2.3042703E-1,4.3215767E-1,6.6299933E-1,1.2413933E0,7.5687796E-2,-4.8408437E0,-3.1606948E0,-4.100952E-1,-8.802133E-1,-4.69431E-1,-2.997595E-1,2.7761623E-1,9.484621E-1,9.687252E-2,-6.0188055E-1,9.437428E-2,8.443743E-1,1.2797183E-1,-7.4470535E-2,2.4317022E-1,-7.7186845E-2,-1.1252021E-1,6.59105E-1,1.2929242E0,8.608401E-1,3.4792404E0,1.7738883E0,-6.829374E-1,7.066919E0,-1.1267275E0,-7.874427E-1,-6.0936356E-1,1.4411398E0,8.608401E-1,-1.0398208E0,1.9229725E-1,1.4411398E0,8.608401E-1,6.6299933E-1,-8.443034E-2,4.4249362E-1,7.066919E0,1.4411398E0,-1.0398208E0,-2.997595E-1,6.9959354E-1,8.608401E-1,7.066919E0,1.4411398E0,-7.874427E-1,1.9229725E-1,8.608401E-1,2.805403E-1,6.6299933E-1,1.4411398E0,4.4249362E-1,8.608401E-1,-1.1252021E-1,2.5038798E0,1.1639826E0,-1.1252021E-1,8.608401E-1,1.4273521E0,8.608401E-1,8.608401E-1,-1.826216E-1,-1.1252021E-1,-8.800593E-1,1.1639826E0,-1.0398208E0,2.7048979E0,-8.080859E-2,7.066919E0,2.3995693E-1,1.8373322E0,1.3556894E0,1.4411398E0,-1.1252021E-1,3.8913405E0,1.3556894E0,-8.7141377E-1,9.285572E-1,-2.9446653E-1,1.2113395E0,3.622644E-1,-1.6056173E0,5.4618716E-1,-2.997595E-1,6.9242626E-1,6.6299933E-1,2.5933915E-1,-7.0015365E-1,2.5933915E-1,1.8313588E0,1.6223887E0,-7.4470535E-2,-2.374615E0,-2.8676933E-2,1.6223887E0,8.7795985E-1,3.530625E0,1.4282725E0,3.291641E0,1.8572721E0,1.425342E0,9.19704E-1,2.2266884E-1,1.3481004E0,1.1562644E0,1.3752915E0,1.0550729E0,1.3446478E0,2.3055747E0,1.5833045E0,1.0871229E0,1.7509018E0,6.651788E-1,2.5206852E0,6.7575353E-1,2.9359872E0,8.551177E-1,1.9332081E0,2.3573828E0,1.6176313E0,1.3207879E0,2.1106257E0,2.7078035E0,3.4204274E-1,1.3540078E-2,1.7759343E0,3.3256188E-1,8.590033E-1,2.2266884E-1,2.25548E0,3.7894136E-1,1.857664E0,9.300221E-1,4.842848E-1,3.9059145E0,1.2069474E0,3.0485494E0,-1.1409355E0,-6.1774325E-1,-1.4805663E0,-5.038742E-1,-4.2352583E-2,-3.3917886E-1,7.3405474E-1,1.6708317E-1,-3.452654E-1,1.5645403E0,-1.1692407E0,-5.0268114E-1,-4.647348E-1,-8.6732715E-1,1.1405349E-1,5.435323E-1,-4.621161E-1,2.5307834E-1,-7.35754E-2,-6.114048E-1,7.982568E-1,1.3919812E0,1.4117448E0,6.8820703E-1,4.9003888E-2,3.2548177E-1,-3.0162135E-1,-1.3349869E0,5.2783436E-1,-4.9325496E-1,-1.6546149E0,1.1217154E0,7.807564E-1,1.8469225E0,9.288693E-1,1.610427E0,1.5496248E0,1.2903696E0,1.070155E0,1.2761623E-1,1.7837421E0,3.052237E0,2.1028345E0,1.380504E0,9.2583245E-1,2.4224658E0,-5.5625726E-2,1.3762332E0,1.0447562E0,1.5938629E0,1.0975553E0,2.3498134E-1,9.3042374E-1,1.6018895E0,1.7628345E0,2.4340343E0,1.0038359E-1,-5.036182E-1,-1.1500895E-1,4.955983E-1,1.7640415E-1,-3.4282503E-1,1.9371797E0,3.0212677E-1,2.1214862E0,2.800473E0,4.2652205E-1,-6.846551E-1,1.06702045E-1,2.9526122E0,9.0585124E-1,4.9648398E-1,-4.7598994E-1,6.39837E-1,2.287683E0,5.8072793E-1,1.0195855E0,2.8812194E0,-8.549877E-1,-1.064024E0,-1.7160506E0,-5.8593726E-1,-8.0673784E-1,-1.3288194E-1,-1.0570152E0,-1.4878896E0,-3.735126E-1,-1.4680614E-1,-1.2974155E0,-7.76233E-1,1.4721713E0,2.268284E0,-3.7795818E-1,5.404174E-1,-5.688736E-1,-2.3921761E-1,1.5798489E0,-2.283249E-1,-7.049365E-1,5.7790387E-1,4.4879916E-1,1.21451356E-1,1.938781E0,2.879457E0,2.9028097E-1,1.8159808E0,-6.866535E-2,1.4350344E-1,-4.0072322E-1,-6.853363E-2,-7.993808E-1,-1.3009775E0,-1.2064902E0,-1.8729845E0,-1.6675946E0,-1.8645284E0,-9.8536247E-1,-1.9097904E0,-1.8635864E0,-1.5342025E0,-2.6691884E-1,-9.370813E-1,1.8133831E-1,1.4377377E0,-1.7459515E-1,-3.6357895E-1,-9.8380774E-2,6.5944207E-1,-5.7410395E-1,-1.694067E0,-1.3717951E-1,-8.70083E-1,-1.694512E0,-1.1013508E0,-5.873433E-1,-1.1722261E0,1.2790511E0,-2.0347562E-1,1.9144467E-1,6.230364E-1,2.5003402E0,1.9871672E0,1.572163E-1,1.3844328E0,-2.3238139E-1,3.549454E-1,-1.0183377E0,-5.6678224E-1,3.245306E-1,2.8816466E0,-1.2757025E0,-1.7889814E0,-1.3660927E0,-5.0975686E-1,-3.2099023E-1,5.179535E-1,-1.8201051E0,1.917029E-2,1.1465441E0,1.0529772E-1,1.3604436E0,-6.782192E-1,-7.474274E-1,-1.9294736E-1,1.9079185E0,1.7001069E-1,2.2576497E0,2.9458244E0,2.5710595E0,1.9150052E0,1.4194593E0,2.5187252E0,1.9670449E-1,1.7269483E0,7.116823E-1,1.5269063E0,2.163395E0,3.5267374E-1,9.918812E-1,2.836367E-1,9.5654494E-1,1.5772195E0,1.0561793E0,1.6743776E0,1.7414076E0,7.608234E-1,9.2386985E-1,2.213222E0,3.4411042E0,2.4542274E0,2.5056865E0,9.878258E-1],"split_indices":[1,7,11,12,18,8,11,11,8,7,11,7,0,12,0,18,11,11,6,0,8,0,8,18,0,18,7,8,0,0,7,8,0,8,8,0,0,0,0,11,11,6,3,10,12,1,1,12,6,7,7,7,6,6,18,7,18,4,2,18,8,6,6,8,8,2,18,4,0,2,14,0,0,5,0,1,0,2,9,0,0,9,9,8,0,2,9,2,1,0,0,0,0,18,18,12,18,6,7,7,7,18,6,6,6,6,0,0,0,0,2,4,0,0,2,0,0,0,1,0,0,4,4,6,6,6,18,0,6,0,0,2,0,5,0,5,1,18,16,2,17,0,2,4,14,0,2,3,0,0,1,0,0,0,0,3,0,17,0,11,6,0,0,2,2,6,6,6,6,6,6,18,0,17,6,5,13,6,6,12,7,6,7,17,18,12,6,17,6,7,8,18,9,2,18,6,3,7,1,0,0,0,7,0,0,4,0,3,6,3,0,17,0,2,5,6,3,3,6,0,5,1,0,1,0,3,2,0,0,14,5,0,0,2,1,0,2,0,10,0,0,4,0,2,2,0,0,0,0,2,0,9,13,0,0,2,1,10,4,0,6,0,14,5,4,0,0,3,18,3,18,1,3,4,6,0,0,0,12,14,7,4,6,6,17,1,6,6,13,18,11,12,6,17,6,2,6,12,6,7,1,6,6,13,6,11,6,1,0,8,1,6,14,6,6,16,1,6,8,17,0,18,12,5,4,7,6,1,18,7,4,0,0,17,5,14,0,6,5,13,0,4,0,0,15,18,4,8,15,0,0,0,0,0,0,0,0,0,0,0,0,0,0,0,0,0,0,0,0,0,0,0,0,0,0,0,0,0,0,0,0,0,0,0,0,0,0,0,0,0,0,0,0,0,0,0,0,0,0,0,0,0,0,0,0,0,0,0,0,0,0,0,0,0,0,0,0,0,0,0,0,0,0,0,0,0,0,0,0,0,0,0,0,0,0,0,0,0,0,0,0,0,0,0,0,0,0,0,0,0,0,0,0,0,0,0,0,0,0,0,0,0,0,0,0,0,0,0,0,0,0,0,0,0,0,0,0,0,0,0,0,0,0,0,0,0,0,0,0,0,0,0,0,0,0,0,0,0,0,0,0,0,0,0,0,0,0,0,0,0,0,0,0,0,0,0,0,0,0,0,0,0,0,0,0,0,0,0,0,0,0,0,0,0,0,0,0,0,0,0,0,0,0,0,0,0,0,0,0,0,0,0,0,0,0,0,0,0,0,0,0,0,0,0,0,0,0,0,0,0,0,0,0,0,0,0,0,0,0,0,0,0,0],"split_type":[0,0,0,0,0,0,0,0,0,0,0,0,0,0,0,0,0,0,0,0,0,0,0,0,0,0,0,0,0,0,0,0,0,0,0,0,0,0,0,0,0,0,0,0,0,0,0,0,0,0,0,0,0,0,0,0,0,0,0,0,0,0,0,0,0,0,0,0,0,0,0,0,0,0,0,0,0,0,0,0,0,0,0,0,0,0,0,0,0,0,0,0,0,0,0,0,0,0,0,0,0,0,0,0,0,0,0,0,0,0,0,0,0,0,0,0,0,0,0,0,0,0,0,0,0,0,0,0,0,0,0,0,0,0,0,0,0,0,0,0,0,0,0,0,0,0,0,0,0,0,0,0,0,0,0,0,0,0,0,0,0,0,0,0,0,0,0,0,0,0,0,0,0,0,0,0,0,0,0,0,0,0,0,0,0,0,0,0,0,0,0,0,0,0,0,0,0,0,0,0,0,0,0,0,0,0,0,0,0,0,0,0,0,0,0,0,0,0,0,0,0,0,0,0,0,0,0,0,0,0,0,0,0,0,0,0,0,0,0,0,0,0,0,0,0,0,0,0,0,0,0,0,0,0,0,0,0,0,0,0,0,0,0,0,0,0,0,0,0,0,0,0,0,0,0,0,0,0,0,0,0,0,0,0,0,0,0,0,0,0,0,0,0,0,0,0,0,0,0,0,0,0,0,0,0,0,0,0,0,0,0,0,0,0,0,0,0,0,0,0,0,0,0,0,0,0,0,0,0,0,0,0,0,0,0,0,0,0,0,0,0,0,0,0,0,0,0,0,0,0,0,0,0,0,0,0,0,0,0,0,0,0,0,0,0,0,0,0,0,0,0,0,0,0,0,0,0,0,0,0,0,0,0,0,0,0,0,0,0,0,0,0,0,0,0,0,0,0,0,0,0,0,0,0,0,0,0,0,0,0,0,0,0,0,0,0,0,0,0,0,0,0,0,0,0,0,0,0,0,0,0,0,0,0,0,0,0,0,0,0,0,0,0,0,0,0,0,0,0,0,0,0,0,0,0,0,0,0,0,0,0,0,0,0,0,0,0,0,0,0,0,0,0,0,0,0,0,0,0,0,0,0,0,0,0,0,0,0,0,0,0,0,0,0,0,0,0,0,0,0,0,0,0,0,0,0,0,0,0,0,0,0,0,0,0,0,0,0,0,0,0,0,0,0,0,0,0,0,0,0,0,0,0,0,0,0,0,0,0,0,0,0,0,0,0,0,0,0,0,0,0,0,0,0,0,0,0,0,0,0,0,0,0,0,0,0,0,0,0,0,0,0,0,0,0,0,0,0,0,0,0,0,0],"sum_hessian":[3.6474E4,6.439E3,3.0035E4,3.378E3,3.061E3,2.9028E4,1.007E3,3.168E3,2.1E2,1.428E3,1.633E3,8.4E3,2.0628E4,8.28E2,1.79E2,2.652E3,5.16E2,1.1E2,1E2,1.131E3,2.97E2,1.377E3,2.56E2,3.221E3,5.179E3,1.0618E4,1.001E4,7.28E2,1E2,2.6E1,1.53E2,1.039E3,1.613E3,4.38E2,7.8E1,9.5E1,1.5E1,6E1,4E1,5.52E2,5.79E2,1.42E2,1.55E2,1.5E1,1.362E3,8.9E1,1.67E2,1.776E3,1.445E3,2.745E3,2.434E3,6.086E3,4.532E3,3.31E3,6.7E3,4.39E2,2.89E2,2E1,8E1,1.28E2,2.5E1,4.68E2,5.71E2,5.82E2,1.031E3,1.56E2,2.82E2,5.8E1,2E1,1.4E1,8.1E1,1.4E1,4.6E1,2.02E2,3.5E2,5.73E2,6E0,3.9E1,1.03E2,1.53E2,2E0,1E1,5E0,1.32E3,4.2E1,3E0,8.6E1,2.8E1,1.39E2,1.746E3,3E1,5.73E2,8.72E2,1.481E3,1.264E3,1.393E3,1.041E3,2.329E3,3.757E3,1.207E3,3.325E3,9.77E2,2.333E3,4.029E3,2.671E3,2.9E2,1.49E2,4.9E1,2.4E2,1E0,1.9E1,7.9E1,1E0,1.8E1,1.1E2,2E1,5E0,7.8E1,3.9E2,3.38E2,2.33E2,1.88E2,3.94E2,2.04E2,8.27E2,1.49E2,7E0,5.5E1,2.27E2,1E0,5.7E1,1.3E1,1E0,6.7E1,1.4E1,1.96E2,6E0,1.1E1,3.39E2,3.45E2,2.28E2,3E0,3.6E1,8E1,2.3E1,1E0,9E0,3E0,2E0,3.76E2,9.44E2,2E0,1E0,3.9E1,4.7E1,2.6E1,2E0,6.7E1,7.2E1,8.69E2,8.77E2,2E0,2.8E1,2.98E2,2.75E2,5.38E2,3.34E2,6.91E2,7.9E2,6.54E2,6.1E2,1.383E3,1E1,5.63E2,4.78E2,7.53E2,1.576E3,2.454E3,1.303E3,3.72E2,8.35E2,1.547E3,1.778E3,6.29E2,3.48E2,1.053E3,1.28E3,1.385E3,2.644E3,5.73E2,2.098E3,1.5E2,1.4E2,3.7E1,1.12E2,1.2E1,3.7E1,7.6E1,1.64E2,1.4E1,5E0,1E0,7.8E1,2E0,1.6E1,1.05E2,5E0,3.3E1,3.57E2,1.11E2,2.27E2,1.67E2,2.1E1,1.78E2,2.16E2,1.42E2,6.2E1,2.15E2,6.12E2,5E0,1.44E2,3E0,4E0,4E0,5.1E1,1.15E2,1.12E2,2E0,1.1E1,2.7E1,4E1,1.3E1,1E0,1.59E2,3.7E1,3E0,3E0,3E0,8E0,7.6E1,2.63E2,3.42E2,3E0,7.2E1,1.56E2,3.2E1,4E0,1E0,7.9E1,1.8E1,5E0,4E0,5E0,2E0,1E0,8.1E1,2.95E2,1.13E2,8.31E2,3E0,3.6E1,1E0,4.6E1,2.2E1,4E0,1E0,1E0,5E1,1.7E1,2.4E1,4.8E1,2.57E2,6.12E2,3.72E2,5.05E2,2.4E1,4E0,1E0,2.97E2,5E0,2.7E2,2.57E2,2.81E2,2.55E2,7.9E1,4.68E2,2.23E2,6.8E2,1.1E2,2.08E2,4.46E2,2.18E2,3.92E2,7.52E2,6.31E2,3.1E1,5.32E2,3.09E2,1.69E2,5.69E2,1.84E2,1.052E3,5.24E2,1.64E3,8.14E2,4.37E2,8.66E2,3.6E2,1.2E1,4.77E2,3.58E2,1.147E3,4E2,8.13E2,9.65E2,3.3E1,5.96E2,3.36E2,1.2E1,1.05E3,3E0,8.1E2,4.7E2,5.6E1,1.329E3,1.205E3,1.439E3,2.85E2,2.88E2,1.888E3,2.1E2,4E0,1.46E2,9.5E1,4.5E1,3.4E1,3E0,1E1,1.02E2,1.1E1,1E0,3.6E1,1E0,5.4E1,2.2E1,1.5E1,1.49E2,6.3E1,1.5E1,1E0,1.04E2,8E0,2.5E1,2.65E2,9.2E1,1.1E2,1E0,1.32E2,9.5E1,5.3E1,1.14E2,1.6E1,5E0,1.14E2,6.4E1,2.11E2,5E0,1.1E2,3.2E1,5.7E1,5E0,7E1,1.45E2,3.61E2,2.51E2,3.7E1,1.07E2,2E0,1E0,3E0,1E0,3E0,1E0,1.13E2,2E0,1.08E2,4E0,1E0,2.6E1,3E0,3.7E1,2.3E1,1.36E2,2.5E1,1.2E1,1E0,2E0,2E0,1E0,4E0,4E0,3E1,4.6E1,2.36E2,2.7E1,2.77E2,6.5E1,1.4E1,5.8E1,1.22E2,3.4E1,7E0,7.2E1,9E0,9E0,1E0,4E0,1E0,3E0,2E0,3E0,2E0,7.9E1,3.1E1,2.64E2,1.4E1,9.9E1,6.9E1,7.62E2,2E0,1E0,1.2E1,2.4E1,3.1E1,1.5E1,2E0,2E1,1E0,3E0,1E1,4E1,1.2E1,5E0,1E1,1.4E1,3.3E1,1.5E1,3.2E1,2.25E2,5.68E2,4.4E1,3.57E2,1.5E1,1.67E2,3.38E2,2.63E2,3.4E1,3E0,2E0,2E0,2.68E2,6E1,1.97E2,1.49E2,1.32E2,1.39E2,1.16E2,1.1E1,6.8E1,1.96E2,2.72E2,2.05E2,1.8E1,5.58E2,1.22E2,7.6E1,3.4E1,7.6E1,1.32E2,1.73E2,2.73E2,2.04E2,1.4E1,2.91E2,1.01E2,6.1E1,6.91E2,1.29E2,5.02E2,2.7E1,4E0,3.29E2,2.03E2,2.83E2,2.6E1,9E1,7.9E1,2.76E2,2.93E2,6.3E1,1.21E2,5.22E2,5.3E2,1.26E2,3.98E2,1.021E3,6.19E2,3.97E2,4.17E2,2.18E2,2.19E2,4.3E2,4.36E2,5E0,3.55E2,2.28E2,2.49E2,2.8E1,3.3E2,7.92E2,3.55E2,3.71E2,2.9E1,5.03E2,3.1E2,4.92E2,4.73E2,6E0,2.7E1,4.2E1,5.54E2,1.72E2,1.64E2,7E0,5E0,6.9E1,9.81E2,4.41E2,3.69E2,4.68E2,2E0,2.6E1,3E1,1.327E3,2E0,8.67E2,3.38E2,6.61E2,7.78E2,4.3E1,2.42E2,2.78E2,1E1,1.123E3,7.65E2,1.8E1,1.92E2,5.2E1,9.4E1,6.1E1,3.4E1,3.8E1,7E0,1E0,3.3E1,3E0,7E0,1.01E2,1E0,1E1,1E0,6E0,3E1,1.6E1,6E0,1.1E1,4E0,3E0,1.46E2,4.9E1,1.4E1,1.3E1,2E0],"tree_param":{"num_deleted":"0","num_feature":"19","num_nodes":"583","size_leaf_vector":"1"}},{"base_weights":[1.2763063E-2,3.0580812E0,-6.401821E-1,4.1249204E0,1.8797964E0,-8.589925E-1,5.661889E0,3.9410703E0,6.866606E0,1.0485293E-2,3.5134351E0,5.2896416E-1,-1.4241855E0,5.2744746E0,7.4146943E0,3.6516879E0,5.4184217E0,7.6657095E0,5.9203973E0,-6.2492263E-1,2.4241474E0,3.330981E0,4.47806E0,3.5030127E-1,7.634751E0,-2.457311E0,-8.4181887E-1,5.0303526E0,6.98428E0,5.3555136E0,7.63862E0,3.148885E0,3.9734123E0,4.996121E0,7.6965427E0,7.269611E0,2.8689578E0,6.447276E0,4.992105E0,-1.4893278E0,2.0032045E-1,2.7779055E0,2.0843296E0,3.3673797E0,-7.499177E-1,4.3344464E0,7.04896E0,-5.800789E-1,1.4299306E0,6.0672174E0,7.987488E0,-1.978605E0,-3.655964E0,-1.5636395E0,-1.7308979E-1,4.3245444E0,5.3470087E0,8.050177E0,6.1217475E0,1.1654426E0,6.339354E0,7.8752575E0,6.1812825E0,3.9652758E0,2.4739966E0,3.4619892E0,4.2584767E0,5.821635E0,4.520496E0,8.290973E0,5.6599746E0,1.5651735E0,7.5563903E0,1.3894339E0,2.0668862E0,1.5162736E0,3.7597504E-1,-1.3156823E0,-1.977992E0,3.8658813E-1,-6.267001E-1,3.4773865E0,2.5009415E0,9.833023E-1,2.106835E0,3.3015633E0,1.5946807E0,-2.998864E0,2.3736637E0,4.4938498E0,3.4774065E0,8.585255E-1,2.280068E0,8.0048096E-1,-1.4247773E0,4.697407E-1,2.7434554E0,2.7132788E0,1.8766925E0,7.4401E0,9.32371E0,-9.9685746E-1,-2.4675376E0,-4.161273E0,-2.741851E0,-4.8382142E-1,-2.067859E0,8.9384824E-1,-7.6927334E-1,3.3030462E0,4.713125E0,5.754373E0,4.739669E0,8.802034E0,1.7087634E0,6.527448E0,3.9549894E0,2.1492386E0,9.314902E-1,4.6919217E0,2.3963463E0,6.3027315E0,4.5354253E-1,3.2037275E0,5.2148776E0,2.7146106E0,2.1148424E0,3.8217556E0,3.0066197E0,5.469202E0,3.9535766E0,5.5664454E0,2.7048838E0,3.3562841E0,4.7866163E0,8.033722E-1,8.440942E0,1.0267646E0,1.8980325E0,7.9198213E0,5.4050765E0,-1.4513355E0,-4.2982075E-1,-1.6610335E0,-2.8411427E0,5.850019E-1,-5.02735E-1,-3.3279042E0,-3.4467217E-1,3.5713372E0,1.8167496E-4,1.7120814E0,2.653542E0,1.6405378E-1,4.093692E-1,6.3528013E-1,2.5988618E-1,2.8671286E0,3.5152876E0,-1.4415492E0,-9.540512E-1,1.6905823E-1,9.41355E-1,3.5764763E0,4.7456975E0,4.381169E0,1.9787824E0,-4.1209567E-1,2.1132348E0,-2.2477303E0,-4.4872525E-1,1.8929182E-1,2.7091079E0,5.3413086E0,1.5112514E0,1.02925E0,8.4092334E-2,8.678978E0,6.9226913E0,9.528622E0,1.0041146E0,1.5289148E0,-1.8443834E0,-2.947808E0,-1.5241657E0,-3.719758E0,-4.886438E0,-9.369932E-1,-3.28604E0,-1.9953431E0,1.4508582E0,-1.7373266E0,-2.9301546E0,2.6704385E0,9.4641365E-2,-1.1594274E0,6.0045636E-1,3.5370057E0,7.923922E-1,4.9139514E0,3.1020343E0,5.8685293E0,2.8354132E0,3.7913103E0,5.1896353E0,9.004399E0,4.4001618E-1,2.5173273E0,6.7342534E0,1.9447118E0,7.176795E-1,3.3183002E-1,1.5315627E0,6.758191E0,1.0974504E0,6.075167E-1,3.6199837E0,7.2273088E0,3.3411233E0,2.1462927E0,2.9818783E0,2.1590586E0,1.5635525E0,3.6492846E0,5.724741E0,2.5022326E0,3.2347026E0,5.909978E0,3.561952E0,5.2205567E0,3.5006871E0,6.576273E0,4.649967E0,3.5928826E0,7.6207E-1,5.536378E0,4.479599E0,4.8964667E0,8.7619295E0,9.025814E0,6.9713426E0,1.6785401E0,4.1164228E-1,-1.7808785E0,-9.868906E-1,1.7843922E0,-1.010726E0,-1.2448387E0,-2.976359E0,-3.4136822E0,-6.806098E-1,6.4066046E-1,-1.1419741E0,-1.16641514E-1,-1.4555812E0,5.2056313E-3,-3.7015274E0,-9.737486E-1,5.5364746E-1,3.8417416E0,2.4570708E0,1.9506513E0,1.8187249E-1,2.3451552E0,3.458087E0,3.4478238E0,2.512158E0,2.6896837E0,3.94412E0,-7.692927E-1,9.7422343E-1,4.510894E0,3.059043E0,4.5761538E0,6.045634E0,2.6469738E0,5.476447E0,2.1390636E0,4.6435547E-1,-5.814602E-1,8.6882013E-1,4.924855E0,7.269773E-1,-2.7830033E0,-1.7766094E0,-1.7378362E0,9.663777E-1,6.425034E-1,-9.396166E-1,4.4492154E0,1.3626293E0,-2.8775215E-1,5.702442E0,3.7466145E0,6.2776476E-1,1.294747E0,2.8559601E0,5.981131E0,7.676894E0,1.8166157E0,1.0050259E1,2.8435153E-1,4.101912E0,-2.647987E0,-5.2587414E-1,-3.3670502E0,-2.096374E0,-1.8906912E0,1.5261766E-1,-2.5286794E0,-4.1483116E0,-5.275879E0,-4.4621515E0,7.6446855E-1,-2.787569E0,-6.182411E0,-2.9720309E0,1.5088435E-1,-3.869114E0,3.6152158E0,4.3604174E-1,-2.8920605E0,-1.5295683E0,-3.15924E0,-2.1394806E0,1.2960199E0,5.1135783E0,7.8208464E-1,-5.063114E-1,-1.8655496E0,-1.726159E-1,5.1821464E-1,3.142995E0,2.9564755E0,4.865644E0,1.2174561E0,-1.8017833E-1,5.3366594E0,4.030202E0,1.5867078E0,4.1063037E0,6.3565903E0,4.9852586E0,-2.7110925E-1,3.4248817E0,4.2992773E0,2.823093E0,4.5334406E0,6.085535E0,2.8750615E0,5.1871095E0,9.071286E-1,1.497036E-1,7.134333E0,4.2967777E0,9.8031384E-1,7.1583977E0,5.79373E-1,1.2554662E0,2.208672E0,8.0643827E-1,8.210773E-1,1.4625205E0,7.635841E-1,5.9489876E-1,1.0359296E0,8.3307964E-1,6.5518975E-1,4.2976716E-1,1.9793253E-1,5.414241E-1,9.6143776E-1,1.2234389E0,2.6567266E0,9.1410464E-1,-2.8182318E-2,7.9909503E-1,8.628569E-1,1.1657599E0,1.6517985E0,3.9449713E0,4.778741E-2,1.3963339E0,1.465123E0,1.8492812E0,9.355034E-1,1.3188034E0,2.1935434E0,1.5320618E0,9.4219095E-1,1.5280032E0,1.153739E0,6.79897E-1,1.1560037E0,2.0173867E0,7.353952E-1,1.4124525E0,1.838492E0,3.6337358E-1,1.4642167E0,2.7233095E0,4.1164228E-1,2.7775393E0,2.1953807E0,5.8076364E-1,-4.0103397E-1,-7.733285E-1,1.4702979E0,-3.421175E-1,-6.218097E-1,9.9011683E-1,-4.27964E-1,7.549792E-2,-5.5259126E-1,1.4837146E-1,-1.3330102E0,2.0893651E-1,-1.2705942E0,-6.229951E-1,-8.879505E-1,8.7251407E-1,2.0776111E-1,-8.228947E-1,5.0000522E-2,-3.1030333E-1,-5.673022E-1,3.909475E-1,-1.176839E0,-2.8970605E-1,6.87785E-2,-6.3126004E-1,6.467455E-1,-5.5097483E-2,3.1512147E-1,1.204818E0,8.887982E-1,8.69423E-2,4.1036266E-1,7.0873284E-1,7.572735E-1,4.2625454E-1,4.983386E-1,1.1666672E0,4.5759627E-1,1.115279E0,5.4002076E-1,8.3723384E-1,7.406528E-1,1.1079417E0,1.4567587E0,1.0806967E0,3.847644E-1,5.363617E-2,1.4233398E0,1.8613243E-1,1.0504235E0,4.9416515E-1,1.3902407E0,4.2082587E-1,8.405495E-1,2.091146E0,9.0590364E-1,1.5669023E-1,1.8192484E0,7.032578E-1,8.032395E-1,3.1930143E-1,5.623421E-1,-3.533821E-1,-2.1860911E-1,3.3278024E-1,4.1643563E-1,-4.8950723E-1,1.510974E0,2.1183887E-1,4.1826817E-1,3.418102E-2,-6.8616945E-1,-1.1425805E0,-3.042112E-1,-6.5636355E-1,-1.6246918E-1,-6.879839E-1,7.3090386E-1,-4.1196305E-1,-4.628358E-2,8.0482244E-1,3.2723996E-1,-3.0043608E-1,8.555119E-1,1.8960387E0,1.2542616E-2,5.744373E-1,-5.191677E-1,1.8758513E0,-2.9718205E-1,1.7365583E0,9.970867E-1,2.3573508E0,-1.5996361E-1,8.155806E-1,2.3351626E0,1.5730996E0,2.433607E0,1.4815035E0,3.1309798E0,1.6934689E0,-8.643613E-2,4.644219E-1,8.3557886E-1,1.6087114E0,-9.382855E-1,-3.0675507E-1,2.8857046E-1,-4.7864428E-1,-1.1062306E0,-7.5612485E-1,-1.1616888E-1,-7.6993626E-1,-3.6420473E-1,-1.1252367E0,3.0526656E-1,-3.991486E-1,3.261786E-1,-8.9380455E-1,-1.3672854E0,-9.4732773E-1,-1.6163797E0,-9.214632E-1,-8.541009E-1,-1.4206951E0,6.6953105E-1,-1.0097347E-1,-1.0568947E0,-2.3148118E-1,-7.53168E-1,-2.0496347E0,-1.0350399E0,-5.406982E-1,-4.4818968E-2,2.1073976E-1,-1.1399895E0,-1.5633726E0,1.1337996E0,5.956834E-1,-1.4552367E-1,4.7651693E-1,-6.4359707E-1,-9.4216174E-1,-5.4608756E-1,-2.3958808E-1,-1.0885315E0,-7.8144795E-1,-7.836282E-1,-1.9633155E-1,2.5443593E-1,5.22684E-1,1.4406255E0,2.1513352E0,5.629732E-1,1.9533749E-1,-4.7124967E-1,3.284427E-1,-9.3233716E-1,-3.123031E-1,5.6643295E-1,-3.3497658E-1,2.1428747E-2,5.222978E-1,1.5755368E-2,9.487952E-1,1.5362275E0,1.175726E-1,4.3559363E-1,4.1904833E-2,-1.0809518E-1,2.7014924E-2,1.7780808E0,1.2144154E0,5.96683E-1,1.3091149E0,2.9327407E-1,6.768013E-1,4.799605E-1,1.4292058E0,1.8003919E0,2.704171E0,2.116737E0,1.422526E0,1.5263043E-1,-2.746296E-1,1.4622629E0,2.1325402E-1,1.117391E0,1.7053791E0,6.368116E-1,1.4761999E0,1.3917022E0,5.1602557E-2,1.9720097E0,1.2562094E0,1.691353E0,4.4001618E-1,4.6448767E-1,2.1730385E0,3.6769524E-1,1.3582388E0,5.209935E-1,2.2125506E0],"categories":[],"categories_nodes":[],"categories_segments":[],"categories_sizes":[],"default_left":[0,0,0,0,0,0,0,0,0,0,0,0,0,0,0,0,0,0,0,0,0,0,0,0,0,0,0,0,0,0,0,0,0,0,0,0,0,0,0,0,0,0,0,0,0,0,0,0,0,0,0,0,0,0,0,0,0,0,0,0,0,0,0,0,0,0,0,0,0,0,0,0,0,0,0,0,0,0,0,0,0,0,0,0,0,0,0,0,0,0,0,0,0,0,0,0,0,0,0,0,0,0,0,0,0,0,0,0,0,0,0,0,0,0,0,0,0,0,0,0,0,0,0,0,0,0,0,0,0,0,0,0,0,0,0,0,0,0,0,0,0,0,0,0,0,0,0,0,0,0,0,0,0,0,0,0,0,0,0,0,0,0,0,0,0,0,0,0,0,0,0,0,0,0,0,0,0,0,0,0,0,0,0,0,0,0,0,0,0,0,0,0,0,0,0,0,0,0,0,0,0,0,0,0,0,0,0,0,0,0,0,0,0,0,0,0,0,0,0,0,0,0,0,0,0,0,0,0,0,0,0,0,0,0,0,0,0,0,0,0,0,0,0,0,0,0,0,0,0,0,0,0,0,0,0,0,0,0,0,0,0,0,0,0,0,0,0,0,0,0,0,0,0,0,0,0,0,0,0,0,0,0,0,0,0,0,0,0,0,0,0,0,0,0,0,0,0,0,0,0,0,0,0,0,0,0,0,0,0,0,0,0,0,0,0,0,0,0,0,0,0,0,0,0,0,0,0,0,0,0,0,0,0,0,0,0,0,0,0,0,0,0,0,0,0,0,0,0,0,0,0,0,0,0,0,0,0,0,0,0,0,0,0,0,0,0,0,0,0,0,0,0,0,0,0,0,0,0,0,0,0,0,0,0,0,0,0,0,0,0,0,0,0,0,0,0,0,0,0,0,0,0,0,0,0,0,0,0,0,0,0,0,0,0,0,0,0,0,0,0,0,0,0,0,0,0,0,0,0,0,0,0,0,0,0,0,0,0,0,0,0,0,0,0,0,0,0,0,0,0,0,0,0,0,0,0,0,0,0,0,0,0,0,0,0,0,0,0,0,0,0,0,0,0,0,0,0,0,0,0,0,0,0,0,0,0,0,0,0,0,0,0,0,0,0,0,0,0,0,0,0,0,0,0,0,0,0,0,0,0,0,0,0,0,0,0,0,0,0,0,0,0,0,0,0,0,0,0,0,0,0,0,0,0,0,0,0,0,0,0,0,0,0,0,0,0,0,0,0,0,0,0,0,0,0,0,0,0,0,0,0,0,0,0,0,0,0,0,0,0,0,0,0,0,0,0,0,0,0,0,0,0,0,0,0,0,0,0,0,0,0,0,0,0,0,0,0,0,0,0,0,0,0,0,0,0,0,0,0],"id":3,"left_children":[1,3,5,7,9,11,13,15,17,19,21,23,25,27,29,31,33,35,37,39,41,43,45,47,49,51,53,55,57,59,61,63,65,67,69,71,-1,73,75,77,79,81,83,85,87,89,91,93,95,97,99,101,103,105,107,109,111,113,115,-1,117,119,121,123,125,127,129,131,133,135,137,-1,139,-1,-1,-1,-1,141,143,145,147,149,151,153,155,157,-1,159,161,163,165,-1,-1,167,169,171,173,175,-1,177,179,181,183,185,187,189,191,193,195,197,199,201,203,205,-1,207,209,-1,-1,211,-1,213,-1,215,217,219,221,223,225,227,229,231,-1,233,235,-1,237,-1,-1,239,241,243,245,247,249,251,253,255,257,259,-1,261,263,-1,-1,-1,-1,265,267,-1,269,-1,-1,271,273,275,277,279,281,283,285,287,289,291,293,-1,-1,295,297,299,-1,301,303,305,307,309,311,313,315,317,319,321,323,325,327,329,331,333,335,337,339,341,343,345,347,349,-1,351,353,-1,-1,-1,-1,355,-1,-1,357,359,361,363,365,367,369,371,373,375,377,379,381,383,385,387,389,391,-1,393,395,397,399,401,403,-1,-1,405,407,409,411,413,415,417,419,421,-1,423,425,-1,427,429,431,433,435,437,-1,439,441,443,445,447,449,-1,451,453,455,457,459,461,463,465,467,469,471,473,475,477,479,481,483,485,487,489,491,493,495,497,499,-1,-1,501,503,-1,505,507,509,511,513,515,517,519,521,523,525,527,529,531,533,535,537,539,541,543,545,547,549,551,553,555,557,559,561,563,565,567,-1,569,571,573,575,577,579,581,583,585,587,589,591,593,595,597,599,-1,601,-1,-1,603,605,-1,607,-1,-1,-1,-1,-1,-1,-1,-1,-1,-1,-1,-1,-1,-1,-1,-1,-1,-1,-1,-1,-1,-1,-1,-1,-1,-1,-1,-1,-1,-1,-1,-1,-1,-1,-1,-1,-1,-1,-1,-1,-1,-1,-1,-1,-1,-1,-1,-1,-1,-1,-1,-1,-1,-1,-1,-1,-1,-1,-1,-1,-1,-1,-1,-1,-1,-1,-1,-1,-1,-1,-1,-1,-1,-1,-1,-1,-1,-1,-1,-1,-1,-1,-1,-1,-1,-1,-1,-1,-1,-1,-1,-1,-1,-1,-1,-1,-1,-1,-1,-1,-1,-1,-1,-1,-1,-1,-1,-1,-1,-1,-1,-1,-1,-1,-1,-1,-1,-1,-1,-1,-1,-1,-1,-1,-1,-1,-1,-1,-1,-1,-1,-1,-1,-1,-1,-1,-1,-1,-1,-1,-1,-1,-1,-1,-1,-1,-1,-1,-1,-1,-1,-1,-1,-1,-1,-1,-1,-1,-1,-1,-1,-1,-1,-1,-1,-1,-1,-1,-1,-1,-1,-1,-1,-1,-1,-1,-1,-1,-1,-1,-1,-1,-1,-1,-1,-1,-1,-1,-1,-1,-1,-1,-1,-1,-1,-1,-1,-1,-1,-1,-1,-1,-1,-1,-1,-1,-1,-1,-1,-1,-1,-1,-1,-1,-1,-1,-1,-1,-1,-1,-1,-1,-1,-1,-1,-1,-1,-1,-1,-1,-1,-1,-1,-1,-1,-1,-1,-1,-1,-1,-1,-1,-1,-1,-1,-1,-1,-1,-1,-1,-1,-1],"loss_changes":[7.252978E4,8.0875938E3,4.1423273E4,1.6761484E3,9.350634E3,2.2772936E4,6.4538477E2,1.3350234E3,1.1415625E2,2.1931147E3,2.7266602E2,1.0662733E4,1.2409531E4,3.1089258E2,4.2089844E1,4.1664844E2,4.589287E2,1.390625E1,1.7213135E1,8.078042E2,3.0033447E1,2.0721289E2,6.433496E1,8.233431E3,6.544141E1,4.2595586E3,6.368506E3,1.3980664E2,4.3575195E1,5.758606E0,6.498047E0,5.632012E2,2.2056055E2,1.460498E2,4.871045E1,1.707959E1,0E0,1.708789E1,3.1914062E0,4.4322144E1,8.9589645E1,1.9006714E1,1.7938232E0,1.5760547E2,9.8440254E1,1.797998E1,5.9491577E0,5.1357285E3,4.78383E3,9.569092E0,5.1316406E1,2.5492637E3,9.683008E2,3.4536328E3,4.35791E3,7.612451E1,9.618359E1,2.420874E1,2.692749E1,0E0,7.09964E0,1.0538086E1,5.783203E0,4.296089E2,4.3689697E1,8.402002E1,3.5933984E2,7.780469E1,7.161377E1,2.706128E1,9.676514E0,0E0,2.1304688E1,0E0,0E0,0E0,0E0,4.8766052E1,3.4403076E1,8.393327E1,8.036719E1,1.241037E1,8.217224E0,8.5814476E-2,1.954956E-1,1.12853516E2,0E0,2.496399E1,6.5314255E0,3.015918E1,4.9569824E1,0E0,0E0,2.6623848E3,2.193457E3,1.3767527E3,5.1200654E3,6.021467E0,0E0,1.8120605E1,2.1993408E1,3.7896426E3,1.6030117E3,4.185371E2,7.41416E2,5.912926E3,1.2276055E3,3.4869312E3,2.3494094E3,3.655255E1,3.8142334E1,8.132617E1,6.823096E1,3.132544E1,0E0,2.3684082E1,3.188768E1,0E0,0E0,4.726944E0,0E0,6.5942383E0,0E0,1.369143E2,6.395137E2,4.5091797E1,2.328125E0,8.479248E1,2.204712E1,1.5128613E2,4.56833E2,1.0639209E2,0E0,1.6855469E0,2.7682617E1,0E0,2.1947998E1,0E0,0E0,8.410645E0,3.8200073E0,5.272992E1,7.383341E1,5.4870087E1,4.3445282E1,9.727731E1,3.1836449E1,1.2562874E1,5.5920055E1,1.7088013E0,0E0,4.09383E0,1.3475952E1,0E0,0E0,0E0,0E0,8.2447754E1,3.0201367E2,0E0,1.8023304E1,0E0,0E0,9.408997E0,6.936035E0,3.4889038E1,3.3759308E0,1.8924446E2,3.1262168E3,3.6878418E2,2.2837847E3,9.982908E2,5.6563354E2,1.0485547E3,2.146354E3,0E0,0E0,7.631958E1,1.8705078E1,1.5236328E1,0E0,1.4238383E3,1.4025225E3,8.31791E2,7.371743E2,4.2440527E2,6.1223633E1,5.5944806E2,5.1094775E2,4.5650303E3,1.9466532E3,7.462412E2,2.1005469E2,2.5520903E3,7.0063605E2,2.3834624E3,7.8650024E2,3.266504E1,3.1131911E0,3.2659424E1,2.5442215E1,8.987891E1,2.4734085E1,2.2290283E1,5.295166E1,1.4400391E1,0E0,2.5796833E0,1.4203613E1,0E0,0E0,0E0,0E0,5.9436035E0,0E0,0E0,1.979768E2,3.1658203E1,7.2850464E1,2.249939E0,1.2430054E1,7.4365234E-1,3.3869858E0,4.373462E1,1.8261615E2,3.629004E1,3.0144165E1,4.1019043E2,1.5167145E2,3.8552246E1,1.9613428E2,3.615381E1,3.8208984E1,5.039917E0,0E0,9.807861E1,6.588257E1,2.435434E1,1.8197998E1,3.7153564E1,5.7388916E1,0E0,0E0,6.981024E1,1.4115843E2,7.700877E1,2.3980682E1,8.711957E1,1.3779582E2,2.3062622E1,8.222936E1,6.930373E1,0E0,1.6552036E1,3.249497E1,0E0,1.6600266E0,7.9359215E1,4.882881E1,9.405792E0,1.0098858E1,6.081886E-1,0E0,7.3386536E0,1.0571045E1,7.990491E1,5.013257E1,5.847119E1,1.6294238E2,0E0,5.0645447E-1,1.0686859E1,1.54670105E1,1.9811523E1,2.5470398E1,7.925331E0,1.3397491E1,6.408409E0,9.155511E0,1.9224112E2,1.3471317E2,1.2134668E2,2.2031973E2,3.4314502E2,2.4585669E2,4.339801E2,2.0565E3,2.2632837E3,7.12775E1,2.9878955E2,1.0129358E2,3.1279874E2,2.8460254E2,5.094995E2,1.8972593E3,0E0,0E0,1.9009766E1,1.5946533E1,0E0,6.5527344E-1,2.18203E2,2.257041E2,6.3843506E2,8.0197614E2,4.1738086E2,6.2407886E2,1.2339902E3,2.7843863E2,3.747865E2,2.3900781E2,4.8165527E1,9.783594E1,1.5099895E2,1.23299866E2,1.1644214E2,2.885E2,8.788852E1,3.6439453E1,6.818237E1,6.4294867E2,8.158325E1,5.6252637E2,2.3142871E2,1.8919397E2,9.626367E1,1.4117285E2,1.1215564E2,1.5442251E3,2.0391724E3,2.779952E3,5.287129E2,0E0,2.677649E1,1.7395477E1,1.0609941E0,1.7848226E-1,4.826758E1,2.6041138E1,1.8714466E0,1.2160446E1,1.1395508E2,1.9482422E1,1.9732206E0,3.9803986E1,1.3853699E1,2.9220993E1,3.7416992E1,2.3404053E1,0E0,1.7922974E0,0E0,0E0,1.1949707E1,8.2707214E-1,0E0,8.346985E0,0E0,0E0,0E0,0E0,0E0,0E0,0E0,0E0,0E0,0E0,0E0,0E0,0E0,0E0,0E0,0E0,0E0,0E0,0E0,0E0,0E0,0E0,0E0,0E0,0E0,0E0,0E0,0E0,0E0,0E0,0E0,0E0,0E0,0E0,0E0,0E0,0E0,0E0,0E0,0E0,0E0,0E0,0E0,0E0,0E0,0E0,0E0,0E0,0E0,0E0,0E0,0E0,0E0,0E0,0E0,0E0,0E0,0E0,0E0,0E0,0E0,0E0,0E0,0E0,0E0,0E0,0E0,0E0,0E0,0E0,0E0,0E0,0E0,0E0,0E0,0E0,0E0,0E0,0E0,0E0,0E0,0E0,0E0,0E0,0E0,0E0,0E0,0E0,0E0,0E0,0E0,0E0,0E0,0E0,0E0,0E0,0E0,0E0,0E0,0E0,0E0,0E0,0E0,0E0,0E0,0E0,0E0,0E0,0E0,0E0,0E0,0E0,0E0,0E0,0E0,0E0,0E0,0E0,0E0,0E0,0E0,0E0,0E0,0E0,0E0,0E0,0E0,0E0,0E0,0E0,0E0,0E0,0E0,0E0,0E0,0E0,0E0,0E0,0E0,0E0,0E0,0E0,0E0,0E0,0E0,0E0,0E0,0E0,0E0,0E0,0E0,0E0,0E0,0E0,0E0,0E0,0E0,0E0,0E0,0E0,0E0,0E0,0E0,0E0,0E0,0E0,